-0.28572017 	-0.62836617 	-0.69103414 	-0.40532812 	0.00599554 	
-0.70762157 	-0.47450176 	0.12299041 	0.58604288 	0.48054790 	
-0.06223560 	0.64359677 	0.91461539 	0.54805267 	-0.10475487 	
0.64952219 	0.75672817 	0.27689147 	-0.22822325 	-0.38417101 	
0.10759621 	-0.36535504 	-0.66054296 	-0.46756935 	-0.15106529 	
-0.19150953 	-0.23275657 	-0.33190644 	-0.39183673 	-0.37779394 	
0.04506567 	0.01043174 	0.00169708 	0.01327125 	-0.01542883 	
0.35529938 	0.45086950 	0.49235797 	0.46421474 	0.32719335 	
0.02670967 	0.12332461 	0.16728349 	0.18016069 	0.24389936 	
-0.49510297 	-0.52478153 	-0.58464807 	-0.46363753 	-0.22337680 	
-0.11151185 	-0.26942387 	-0.57792282 	-0.69834995 	-0.65881801 	
0.19885473 	0.27679896 	0.00136143 	-0.42432499 	-0.74423945 	
0.15533872 	0.64200509 	0.85354704 	0.49593654 	-0.35557920 	
-0.17742836 	0.19866392 	0.60919750 	0.65188414 	0.11164483 	
-0.41506538 	-0.45024988 	-0.22487678 	0.14819410 	0.16709982 	
-0.31634015 	-0.10239862 	0.27873877 	0.31093541 	-0.19449800 	
-0.55307549 	-0.11172058 	0.51432145 	0.43118078 	-0.50643826 	
-0.51788813 	0.15957394 	0.72646815 	0.29764545 	-0.72466910 	
-0.29909590 	0.35184190 	0.55575013 	-0.04502263 	-0.55328673 	
-0.01573772 	0.28862655 	0.10124341 	-0.24573526 	-0.35606244 	
0.07825094 	0.20842546 	-0.02592043 	-0.40408766 	-0.57237625 	
0.00849152 	0.42180124 	0.40051770 	-0.12638824 	-0.53968555 	
-0.17340696 	0.32880318 	0.51696044 	0.07263334 	-0.42306259 	
-0.27778232 	0.14845012 	0.37458339 	0.14954069 	-0.20981553 	
-0.19972621 	-0.02724374 	0.15119801 	0.12603539 	-0.09933171 	
0.01796363 	0.20735930 	0.22082445 	-0.04168702 	-0.34925076 	
-0.18496303 	0.24016879 	0.60745865 	0.46760958 	-0.16640784 	
-0.47427624 	-0.00077701 	0.62461340 	0.71797127 	0.12816463 	
-0.61694241 	-0.37039083 	0.04433691 	0.43714577 	0.28850031 	
-0.65837806 	-0.67773825 	-0.59578872 	-0.20534474 	0.04821248 	
0.13227703 	0.09051576 	-0.00230214 	0.02559628 	0.25665513 	
0.31452480 	0.42082286 	0.50843173 	0.56156057 	0.55038500 	
0.01720526 	0.39297578 	0.51972264 	0.42365599 	0.01308605 	
-0.67855954 	-0.36409789 	-0.35818169 	-0.35701182 	-0.64860785 	
-0.96997935 	-0.90113509 	-0.93995261 	-0.79245043 	-0.83771545 	
-0.87809908 	-0.74588776 	-0.59610617 	-0.15124993 	0.23565970 	
-0.64237779 	-0.44147539 	-0.12951779 	0.33323294 	0.37298942 	
-0.76783329 	-0.34544432 	0.27934456 	0.56148899 	0.36537719 	
-0.81803268 	-0.23792970 	0.40998703 	0.53402418 	0.25154552 	
-0.84983492 	-0.25578722 	0.24670693 	0.44196659 	0.13387579 	
-0.00063517 	-0.00274344 	-0.00779589 	-0.02227171 	-0.04622785 	-0.05858580 	-0.08114757 	-0.09559692 	-0.10151585 	-0.07925919 	-0.04040301 	-0.00923750 	-0.00153440 	-0.00811960 	-0.02435972 	-0.05967033 	-0.07542922 	-0.04336730 	-0.02281458 	-0.05942073 	-0.04907485 	-0.05578848 	-0.02357377 	0.00527574 	-0.00327404 	-0.01662541 	-0.03799452 	-0.06598009 	-0.04925805 	-0.05712895 	-0.09412169 	-0.05459135 	-0.00888834 	-0.02041640 	-0.00960433 	-0.00641208 	-0.00342540 	-0.01381204 	-0.00964667 	-0.02249728 	-0.06645840 	-0.08720832 	-0.06952529 	-0.04309981 	-0.07978064 	-0.06720163 	-0.06541113 	-0.03727427 	-0.00110914 	-0.00814470 	0.02256790 	-0.03869582 	-0.02223787 	-0.01632563 	-0.05319549 	-0.14016141 	-0.17059238 	-0.09141307 	-0.05786465 	-0.02524954 	-0.00969444 	-0.00188884 	0.03219558 	0.02654329 	0.01537313 	-0.04887149 	-0.13154797 	-0.18803108 	-0.14779454 	-0.09376758 	-0.04416709 	-0.01996396 	-0.00663947 	0.00811312 	0.02491075 	0.01800319 	-0.03292611 	-0.11176587 	-0.17376167 	-0.11962556 	-0.04090032 	-0.04419926 	-0.02226748 	-0.01059237 	-0.00309559 	-0.01459839 	-0.02056328 	-0.04719746 	-0.08823325 	-0.10871629 	-0.06379290 	0.01345307 	0.01103228 	-0.04450488 	-0.01450926 	-0.02384778 	-0.00387610 	-0.03453654 	-0.05229196 	-0.04332379 	-0.03319791 	0.00754638 	0.06176725 	0.06680650 	0.00114098 	0.01987162 	0.00278110 	-0.01784737 	-0.00108807 	-0.00688120 	-0.02687752 	-0.00599498 	-0.01264291 	-0.02973491 	-0.00174758 	-0.00610569 	0.00313296 	0.02343799 	-0.01684834 	-0.00585182 	-0.00302162 	0.00135153 	-0.00890691 	-0.00107705 	-0.01303203 	-0.00242227 	0.06042350 	0.03511137 	0.00699904 	-0.00902369 	-0.00896113 	-0.00406554 	-0.00433473 	-0.01107460 	-0.02525627 	-0.05978068 	-0.08988416 	-0.09033610 	-0.05303917 	-0.03955024 	-0.03082560 	-0.00963136 	-0.00430323 	-0.00073203 	-0.00106794 	-0.00349227 	-0.00976701 	-0.02138342 	-0.03017720 	-0.03308555 	-0.03297455 	-0.03553767 	-0.03158034 	-0.02525720 	-0.01227221 	-0.00260956 	-0.00232649 	-0.01168507 	-0.02839671 	-0.04317268 	-0.04545330 	-0.02434198 	-0.00224093 	-0.01147631 	-0.02953375 	-0.03240525 	-0.03257527 	-0.01357690 	-0.00367959 	-0.01569416 	-0.04013804 	-0.05551794 	-0.03884765 	-0.03199055 	-0.03461842 	-0.01636712 	-0.00002192 	0.00266914 	-0.01811316 	-0.02419197 	-0.00443846 	-0.01061089 	-0.02092019 	-0.03120198 	-0.04085011 	-0.05504879 	-0.04480777 	-0.01863979 	-0.03387640 	-0.03177956 	-0.02691236 	-0.02762987 	-0.00568386 	-0.01004867 	-0.02379305 	-0.03413652 	-0.03715885 	-0.05375532 	-0.06737243 	-0.05069881 	-0.04214982 	-0.02552122 	-0.01158533 	-0.02000497 	-0.00003399 	-0.00011258 	-0.02788532 	-0.04205488 	-0.04695736 	-0.06385915 	-0.11154821 	-0.09040459 	-0.05609391 	-0.02869044 	-0.00856776 	-0.01125767 	0.00033285 	0.00436064 	-0.01449438 	-0.03841901 	-0.06805333 	-0.10404062 	-0.11615640 	-0.07618832 	-0.03519556 	-0.02146507 	-0.00858553 	-0.01027499 	-0.00422078 	0.00058536 	-0.01856678 	-0.02620167 	-0.06766967 	-0.11560760 	-0.07552958 	-0.03253650 	-0.01147684 	-0.01922669 	-0.02152375 	-0.01397836 	-0.01102830 	-0.00077838 	-0.00714692 	0.00980570 	-0.00832514 	-0.04109025 	-0.00552839 	0.01005717 	-0.01108852 	-0.01115912 	-0.01066793 	-0.00822410 	-0.01174026 	-0.00436890 	-0.00798159 	-0.01008910 	-0.01088818 	-0.04101738 	-0.04169381 	-0.02579931 	-0.02822047 	-0.00721594 	-0.01196889 	-0.00686448 	-0.00767668 	0.00008011 	0.00785370 	0.02754925 	0.05293493 	0.06536555 	0.05671403 	0.02416110 	-0.02256830 	-0.02186886 	-0.01089331 	-0.00271912 	-0.00257080 	-0.00947236 	-0.02661336 	-0.04280980 	-0.05469339 	-0.04325685 	-0.03136519 	-0.02684625 	-0.03003971 	-0.01998184 	-0.00730072 	-0.00125534 	-0.00303932 	-0.00925018 	-0.01912391 	-0.03438835 	-0.05280650 	-0.05871473 	-0.08211753 	-0.08515295 	-0.06899111 	-0.04282960 	-0.01466586 	-0.00142275 	-0.00200374 	-0.01299226 	-0.03512878 	-0.03296061 	-0.01889656 	0.02673686 	0.06377941 	0.04015782 	0.02278239 	0.00675526 	0.00201755 	-0.01226314 	-0.00520369 	-0.01169185 	-0.03158392 	-0.06619714 	-0.04776904 	0.00799939 	0.05904995 	0.07262627 	0.04784510 	0.05579579 	0.06785293 	-0.00720606 	-0.00286778 	-0.00850573 	-0.02150000 	-0.04957450 	-0.03977721 	-0.02568739 	-0.00368552 	0.08471555 	0.05335144 	0.01041162 	0.03466613 	-0.00359561 	-0.00053930 	0.00078972 	-0.02266205 	-0.05680092 	-0.05385745 	-0.07900332 	-0.10736139 	-0.02135897 	0.01044599 	0.00309648 	0.02257627 	0.00206175 	0.00098206 	0.00346582 	0.00172888 	-0.03997651 	-0.08347742 	-0.08327805 	-0.10921510 	-0.13005860 	-0.05746790 	-0.04089320 	0.01136792 	0.01254737 	-0.00451637 	-0.01219021 	-0.02379610 	-0.03766963 	-0.04391018 	-0.11897657 	-0.09855337 	-0.11306754 	-0.09529312 	-0.05400192 	-0.00204631 	0.00338183 	-0.01428468 	-0.03085040 	-0.04649573 	-0.03917563 	-0.01429314 	-0.10034171 	-0.10690463 	-0.09012243 	-0.08930591 	-0.05380806 	-0.01947097 	-0.00920355 	-0.02222517 	-0.04936180 	-0.00953468 	0.02196127 	0.06964303 	-0.00039589 	-0.04108285 	-0.02040434 	-0.06267833 	-0.04957227 	-0.01541146 	-0.00398827 	-0.00902001 	-0.03316771 	-0.02531436 	0.00164191 	0.07451285 	0.03109966 	-0.02709035 	-0.03278119 	-0.07510892 	-0.04266255 	-0.01143491 	-0.00857210 	-0.00529876 	-0.01129988 	-0.00702815 	0.00983053 	0.04829455 	0.04760176 	0.01692768 	-0.02039315 	-0.07228313 	-0.05213605 	-0.01561677 	-0.00570813 	-0.00104598 	-0.00340056 	-0.01388599 	-0.01849573 	-0.02580052 	-0.03302590 	-0.04406562 	-0.03564427 	-0.04112634 	-0.03699791 	-0.01326393 	-0.00164132 	-0.00083335 	-0.00395728 	-0.00946550 	-0.03006154 	-0.04266562 	-0.04032265 	-0.06229869 	-0.06724955 	-0.06891655 	-0.04347933 	-0.01479715 	-0.00399736 	-0.00056852 	-0.00823492 	-0.02812115 	-0.05936627 	-0.04642561 	-0.04090784 	-0.03431001 	-0.05790015 	-0.03633509 	-0.04383817 	0.00109518 	-0.01298755 	-0.00125800 	-0.01532087 	-0.04126672 	-0.05741715 	-0.02993666 	-0.03976829 	-0.06223820 	-0.03918239 	-0.02440930 	-0.02889644 	0.01419666 	-0.02414783 	-0.00290161 	-0.01709612 	-0.02219325 	-0.02178500 	-0.01906376 	-0.01795930 	-0.03940643 	0.03217728 	0.01328808 	0.01417033 	0.05759799 	-0.00520323 	-0.00281998 	-0.00758752 	0.01981698 	-0.01855468 	0.03419205 	0.03181515 	0.01042748 	-0.00010769 	0.02812640 	0.05060499 	0.07283216 	0.01624309 	-0.00141647 	0.02131829 	0.05534125 	0.05216357 	0.11033283 	0.05529579 	-0.02749989 	-0.03183531 	0.05613616 	0.05546522 	0.09990447 	0.03259838 	0.00004847 	0.06136473 	0.08019994 	0.09629557 	0.13855572 	0.01444240 	-0.07407364 	0.00094137 	0.06121768 	0.04941686 	0.07909311 	0.02676446 	-0.00499257 	0.05830603 	0.06876325 	0.10047560 	0.11268928 	-0.07362340 	-0.04433907 	0.03285529 	0.00699131 	-0.00844225 	0.05948934 	0.00623812 	-0.01308040 	0.02048591 	0.03393713 	0.05885638 	0.07941781 	-0.06407168 	-0.00950992 	0.00235251 	-0.04488995 	0.01792250 	0.03916530 	-0.00896302 	-0.01177133 	0.00726380 	0.02676952 	0.01601531 	0.02215228 	-0.06774934 	-0.06117386 	-0.06058764 	-0.07430661 	0.00146873 	-0.00159469 	-0.00776514 	-0.00367593 	0.00527623 	0.01614040 	-0.01353232 	-0.04918411 	-0.08012193 	-0.09409399 	-0.06767786 	-0.08405306 	-0.02861789 	-0.00967299 	-0.00431618 	-0.00109056 	-0.00679268 	-0.01334808 	-0.03848447 	-0.08255830 	-0.07952205 	-0.10053904 	-0.07879696 	-0.07025161 	-0.02942990 	-0.00718053 	-0.00077666 	-0.00014729 	-0.00268919 	-0.00775598 	-0.01593187 	-0.02920126 	-0.02750522 	-0.04000427 	-0.04831292 	-0.03820764 	-0.02191554 	-0.00718999 	-0.00103401 	-0.00032992 	-0.00554501 	-0.01764546 	-0.03083212 	-0.03023283 	-0.01269906 	-0.00244158 	-0.01523998 	-0.01648505 	-0.01885633 	-0.00011221 	-0.01057720 	-0.00079215 	-0.00922461 	-0.02192917 	-0.04575545 	-0.03800318 	-0.01058918 	0.01920847 	0.05393476 	0.02573842 	0.02103223 	0.05234598 	-0.00598266 	-0.00117212 	-0.01279088 	-0.02289991 	-0.03239698 	-0.02241038 	-0.02453421 	-0.00310743 	0.08929646 	0.07934560 	0.04297387 	0.06231579 	0.01283480 	-0.00199004 	-0.01077165 	-0.01473796 	-0.02808330 	-0.00685240 	-0.01690599 	-0.02855295 	0.05317204 	0.09435938 	0.06717162 	0.06630579 	0.02728119 	-0.00180743 	-0.00511529 	-0.00274110 	-0.01533534 	0.00800983 	0.01580166 	-0.01449656 	-0.03378221 	0.03297462 	0.03421661 	0.05365090 	0.03969766 	-0.00086494 	0.00441712 	0.01076257 	0.02927275 	0.07800966 	0.01222402 	-0.04443730 	-0.06967623 	-0.02326119 	-0.00011520 	0.03949178 	0.03634233 	-0.00197799 	0.01385128 	0.02496352 	0.06018542 	0.11341282 	-0.01401350 	-0.08345314 	-0.07001163 	-0.04903799 	-0.00745296 	0.02845944 	0.02023344 	-0.00489207 	0.00611116 	0.04653650 	0.07375978 	0.11501711 	-0.00793969 	-0.07768680 	-0.04788360 	-0.06519753 	-0.03118437 	0.01210306 	0.00751535 	-0.00315842 	-0.00344399 	0.02562424 	0.04627870 	0.09088776 	0.02893019 	-0.04487601 	-0.04701610 	-0.09059726 	-0.03477510 	0.00240329 	-0.00238833 	-0.00158422 	0.00057345 	0.00943760 	0.03802727 	0.05031674 	0.01642512 	-0.03248149 	-0.04362199 	-0.07061074 	-0.03446743 	-0.00458716 	-0.00569763 	-0.00035849 	0.00021443 	-0.00667233 	-0.00043872 	-0.01838451 	-0.04023856 	-0.05534920 	-0.03471768 	-0.04391862 	-0.03964825 	-0.01026651 	-0.00213617 	-0.00269730 	-0.00642238 	-0.01277366 	-0.02513321 	-0.02723839 	-0.02901348 	-0.02524566 	-0.01747403 	-0.01106978 	-0.00635841 	-0.00092274 	-0.00038920 	-0.00346424 	-0.01566164 	-0.03377993 	-0.04293422 	-0.04734606 	-0.04667567 	-0.02721881 	-0.01188837 	-0.00278988 	-0.01281657 	-0.01295868 	-0.00521379 	-0.00575126 	-0.01547733 	-0.05096723 	-0.07312003 	-0.05682841 	-0.03912462 	-0.00740549 	0.03553514 	0.05176006 	0.05085957 	0.02416491 	-0.01801535 	-0.00796442 	-0.00880085 	-0.03768745 	-0.06077955 	-0.04991699 	-0.02457111 	0.02647304 	0.09462238 	0.09167574 	0.06869532 	0.05132513 	-0.01700611 	-0.00282985 	-0.00391582 	-0.03816132 	-0.06845652 	-0.04861948 	-0.03080793 	0.03104099 	0.14010991 	0.12350666 	0.07578518 	0.06049463 	-0.00546599 	0.00406754 	0.02351492 	-0.03632220 	-0.09107692 	-0.08142307 	-0.03392621 	-0.01044592 	0.07740884 	0.10125199 	0.06599122 	0.04597119 	-0.00175394 	0.00446065 	0.04569970 	-0.01238019 	-0.04637732 	-0.08845361 	-0.06990536 	-0.05596336 	-0.01660591 	0.03271961 	0.04273826 	0.02454635 	-0.00386249 	-0.00036970 	0.04378016 	0.00945443 	-0.00084490 	-0.03533418 	-0.11802682 	-0.07070572 	-0.07113050 	-0.01715101 	0.00383291 	0.00617687 	-0.00680585 	-0.01068056 	0.03627364 	0.00631304 	0.01958033 	0.03561911 	-0.06813657 	-0.06253414 	-0.07309926 	-0.06501762 	-0.03858149 	-0.01693890 	-0.00939041 	-0.01311574 	0.02761129 	0.02848058 	0.02527631 	0.08044994 	0.01565841 	-0.07021747 	-0.07957137 	-0.09231085 	-0.03477188 	-0.01235490 	-0.00746225 	-0.00654475 	0.00897644 	0.02953339 	0.03661608 	0.07985808 	0.06995956 	0.00251726 	-0.04460896 	-0.07614112 	-0.02664754 	-0.00777788 	-0.00533523 	-0.00257815 	-0.01406474 	-0.01617756 	-0.02354255 	-0.03510242 	-0.02493559 	-0.03376329 	-0.03947171 	-0.05965353 	-0.03878918 	-0.00677952 	-0.00199651 	-0.00030519 	-0.00067836 	-0.00128981 	-0.00582077 	-0.00886193 	-0.00903040 	-0.01134851 	-0.01368505 	-0.01472054 	-0.01028603 	-0.00435380 	-0.00101389 	-0.00150858 	-0.00590628 	-0.01416748 	-0.04141555 	-0.07124718 	-0.06864937 	-0.04292978 	-0.02993787 	-0.05557367 	-0.05451338 	-0.03233955 	-0.01190203 	-0.00326451 	-0.01935778 	-0.05325171 	-0.09451614 	-0.11331789 	-0.06997722 	-0.05352837 	-0.05371980 	-0.06894828 	-0.06895871 	-0.05518512 	-0.02411188 	-0.00445397 	-0.02448501 	-0.05411571 	-0.07161100 	-0.08377139 	-0.09113792 	-0.08442413 	-0.05375887 	-0.06898959 	-0.07392056 	-0.06442368 	-0.02964331 	-0.00289621 	-0.01763591 	-0.03317433 	-0.04898211 	-0.06049880 	-0.04524774 	-0.01043675 	-0.02390107 	-0.05350894 	-0.06316540 	-0.05273875 	-0.02439947 	-0.01099581 	-0.03135170 	-0.07996184 	-0.08595759 	-0.07013910 	-0.05501427 	-0.05065754 	-0.07887527 	-0.06051094 	-0.04865758 	-0.03988975 	-0.01339758 	-0.00524648 	-0.03526035 	-0.10534652 	-0.13082415 	-0.08098187 	-0.08948111 	-0.12216470 	-0.09657972 	-0.04900496 	-0.02728103 	-0.01584418 	-0.00395100 	0.00237168 	-0.03674754 	-0.08431414 	-0.08632492 	-0.06778437 	-0.10017218 	-0.10695781 	-0.04121374 	0.01291385 	0.00025710 	-0.01283736 	-0.00725386 	-0.00279750 	-0.02499726 	-0.02716324 	-0.01144859 	-0.00978161 	-0.01126752 	0.03323462 	0.03055398 	-0.01239309 	-0.02718572 	-0.00815990 	-0.00313072 	-0.00169518 	0.00650385 	0.00619729 	0.00070939 	-0.01057369 	-0.00656662 	-0.01300608 	-0.01690013 	-0.01472514 	0.01149431 	0.01016906 	0.00063158 	-0.00354730 	0.01247149 	0.02300575 	0.02065408 	0.03830387 	0.05283476 	0.03976599 	0.03816242 	0.02340485 	0.00526488 	0.00080344 	-0.00275018 	-0.00596877 	-0.00672749 	-0.00221311 	-0.01035423 	-0.00550694 	-0.00661923 	-0.01512446 	-0.03001816 	-0.04657585 	-0.03654671 	-0.01354389 	-0.00264898 	-0.00268589 	-0.01078336 	-0.02900839 	-0.04943056 	-0.05247267 	-0.06705588 	-0.07592916 	-0.08671290 	-0.05495515 	-0.03745749 	-0.01015343 	-0.00232510 	-0.00663058 	-0.02153619 	-0.05885991 	-0.06555460 	-0.03571179 	-0.02879275 	-0.03116302 	-0.01428253 	0.01234113 	-0.00802371 	-0.01250836 	-0.01460401 	-0.00915428 	-0.02318400 	-0.04842436 	-0.04273480 	-0.03960116 	-0.02313822 	-0.00112875 	0.01868709 	0.00513944 	-0.01941236 	-0.02531754 	-0.02597394 	-0.00765386 	-0.00084373 	-0.00711778 	-0.04192206 	-0.01799404 	-0.01866766 	-0.02401844 	-0.00612268 	-0.04208007 	-0.01886303 	-0.00801882 	-0.01389645 	-0.00542623 	0.04531398 	0.02244394 	-0.01146233 	0.01945869 	-0.04421937 	-0.06457911 	-0.05624988 	-0.01856552 	0.02604072 	0.04614074 	0.00022700 	0.00416528 	0.09916253 	0.07430258 	0.04357342 	0.00141719 	-0.07436260 	-0.11178135 	-0.03432199 	0.03093233 	0.05671022 	0.05685695 	0.00496289 	0.02525289 	0.11991429 	0.08441949 	0.06814180 	-0.01866063 	-0.09702499 	-0.08941199 	0.02915896 	0.07272601 	0.08262569 	0.05754677 	0.00129450 	0.03081372 	0.08045711 	0.03456508 	0.04386071 	-0.01940193 	-0.07802412 	-0.01431884 	0.05208325 	0.05731744 	0.07904673 	0.04156598 	-0.00435588 	0.01265809 	0.04609391 	-0.01843813 	0.00934889 	-0.00240935 	-0.03739705 	0.01077751 	0.02698257 	0.01531433 	0.04489278 	0.00896416 	-0.00427274 	0.00240367 	0.02863200 	-0.01258427 	-0.00874380 	-0.03112647 	-0.08332699 	-0.04309385 	-0.04794026 	-0.03396517 	-0.00093813 	-0.01093314 	-0.00225741 	-0.00105282 	0.00841398 	-0.00198948 	-0.01045989 	-0.06818880 	-0.12509292 	-0.11947939 	-0.08950388 	-0.05366554 	-0.01534109 	-0.00603213 	0.00006720 	-0.00408681 	-0.01089779 	-0.03111538 	-0.07474381 	-0.10660314 	-0.11254436 	-0.09938918 	-0.07147767 	-0.03694570 	-0.01014528 	-0.00202686 	-0.00010737 	
0.00019901 	0.00016622 	-0.00156890 	-0.00701232 	-0.02452517 	-0.02605359 	-0.01161857 	-0.00532999 	-0.03608291 	-0.02188999 	-0.00572383 	-0.00539069 	0.00003118 	-0.00467893 	-0.01500690 	-0.06830137 	-0.10343865 	-0.07587600 	-0.02359222 	-0.01337221 	0.01037986 	0.02228953 	0.01952051 	-0.00026687 	-0.00383295 	-0.01009052 	-0.03037350 	-0.06432240 	-0.06522960 	-0.09234846 	-0.13775414 	-0.10297312 	-0.03685935 	0.00483413 	-0.00355481 	-0.00924696 	-0.00345445 	-0.01210160 	-0.01844708 	-0.03441713 	-0.07461239 	-0.13974342 	-0.18961348 	-0.10911699 	-0.06941790 	-0.04257488 	-0.03667902 	-0.02227047 	0.00108180 	0.00065726 	-0.00802121 	-0.01841385 	0.00546631 	-0.01648481 	-0.03424161 	-0.06501594 	-0.06621952 	-0.04189557 	-0.02009591 	-0.00780404 	-0.00051426 	-0.00352811 	-0.01082591 	0.01440367 	0.03657228 	0.04517549 	-0.01525758 	-0.09889427 	-0.09691436 	-0.04209147 	-0.01793909 	-0.00444137 	0.00197105 	-0.00001267 	-0.01043152 	0.00459214 	0.00062098 	0.02042518 	-0.03455624 	-0.13214186 	-0.08117812 	-0.03846360 	-0.01261093 	-0.00949389 	0.00289618 	-0.00237745 	-0.01668891 	-0.02210746 	-0.04249888 	-0.06383513 	-0.09298757 	-0.11949646 	-0.05352375 	0.00083545 	-0.00759033 	-0.01114730 	0.00190494 	-0.00668601 	-0.00063035 	-0.00808666 	-0.04900345 	-0.04808174 	-0.13938271 	-0.05445679 	0.03515745 	0.01502404 	-0.01737541 	-0.00771988 	0.00627600 	0.01987005 	0.05456734 	0.05185318 	0.03055647 	-0.07972600 	-0.13772665 	-0.02449729 	0.00090297 	-0.03544390 	-0.04008087 	-0.02156684 	0.00864895 	0.03333715 	0.04904507 	0.05005767 	-0.02569487 	-0.08294909 	-0.05137956 	-0.04128349 	-0.01898259 	-0.03086317 	-0.01170260 	-0.00085655 	0.00545090 	0.01062082 	-0.00034432 	-0.01687058 	-0.05682215 	-0.03946764 	-0.02349744 	-0.01864512 	-0.00734314 	0.00013787 	0.00346479 	0.00086786 	0.00008537 	0.00018969 	-0.00321332 	-0.01341066 	-0.02891909 	-0.03792472 	-0.03160899 	-0.01168329 	-0.00874925 	-0.00535504 	-0.00281204 	-0.00063722 	-0.00084350 	-0.00698592 	-0.02367491 	-0.03851365 	-0.05989418 	-0.07680694 	-0.07827131 	-0.08005850 	-0.03996849 	-0.01382301 	-0.00994336 	-0.00972108 	-0.00378145 	-0.01488473 	-0.03608362 	-0.04662772 	-0.04545796 	-0.06040164 	-0.08981556 	-0.08367246 	-0.04873068 	-0.01815370 	-0.01379936 	-0.01220538 	-0.00347486 	-0.01665398 	-0.03155222 	-0.05248940 	-0.06306881 	-0.06423680 	-0.06844454 	-0.05833371 	-0.04524083 	-0.04691816 	-0.04462769 	-0.02329039 	0.00102787 	-0.00241770 	-0.01618522 	-0.03046829 	-0.03265609 	0.01269712 	0.02008504 	-0.02390462 	-0.03647365 	-0.03954101 	-0.02276123 	-0.01047033 	-0.00097616 	-0.00415825 	-0.00471507 	-0.01134546 	-0.03642285 	0.01407831 	0.02946797 	-0.02386116 	-0.04405715 	-0.02715072 	-0.01385537 	-0.00368589 	0.00204023 	-0.00561277 	-0.00893281 	-0.02141146 	-0.04515950 	-0.01182692 	-0.00936267 	-0.07024802 	-0.05281359 	-0.03118118 	-0.01709159 	-0.00677909 	-0.00017027 	-0.01139882 	-0.02142579 	-0.02948423 	-0.03413870 	-0.00900540 	-0.02700325 	-0.06794927 	-0.03934768 	-0.01492699 	-0.01015523 	-0.00762447 	0.00078227 	-0.01195289 	-0.01255300 	-0.01550468 	-0.01240786 	0.00986205 	-0.02367683 	-0.02688258 	-0.00822437 	-0.00592302 	-0.01144109 	-0.00439161 	0.00934815 	0.01179699 	0.02368527 	0.03284321 	0.00589371 	-0.00936610 	-0.01738306 	-0.00730484 	-0.00987413 	-0.02516229 	-0.02875758 	-0.01233291 	0.00645069 	0.01688706 	0.01945524 	0.00536935 	-0.01230146 	-0.01252002 	0.01352347 	0.02214267 	0.00986665 	-0.00666616 	-0.00762540 	-0.00110072 	0.00068222 	-0.00174882 	-0.01389259 	-0.04322095 	-0.05929020 	-0.04804583 	-0.02847963 	-0.01917346 	-0.00682686 	0.00149592 	0.00210400 	0.00106659 	-0.00013151 	0.00075705 	-0.00536743 	-0.00936034 	-0.01696246 	-0.02432429 	-0.03285225 	-0.03626226 	-0.00703048 	-0.00170129 	-0.00104149 	-0.00154248 	-0.00086654 	-0.00515226 	-0.01753389 	-0.01579423 	0.01704395 	0.00134959 	0.01073718 	-0.01838111 	-0.01632622 	0.01483107 	0.00431739 	-0.01089920 	-0.00342824 	-0.01594028 	-0.03094362 	-0.05229860 	-0.02237978 	-0.03108679 	-0.05829461 	-0.08543512 	-0.06086710 	-0.01236370 	0.00240324 	-0.00844376 	-0.00029690 	-0.01349598 	-0.03566631 	-0.07317161 	-0.08918566 	-0.04221213 	-0.07548779 	-0.12108622 	-0.07928589 	-0.04479875 	-0.03019773 	-0.02134995 	-0.00076604 	-0.00339589 	-0.01656513 	-0.04321318 	-0.07263407 	-0.01887129 	0.05634976 	-0.01021831 	-0.03254202 	-0.02860718 	-0.01903253 	-0.01021360 	-0.00070217 	-0.00529826 	-0.00829639 	-0.01416744 	-0.07680582 	-0.06391037 	0.02421334 	-0.02999364 	-0.03154617 	-0.00545950 	-0.00410490 	-0.00368945 	0.00353021 	0.00409887 	-0.01573556 	-0.02516308 	-0.05666223 	-0.07883161 	-0.02371065 	-0.08680272 	-0.05959827 	-0.00719020 	-0.00946762 	-0.00931187 	0.00082581 	-0.00807196 	-0.02868585 	-0.05072083 	-0.06830823 	-0.06694694 	-0.03142278 	-0.07893158 	-0.05101586 	-0.00450463 	-0.00200189 	-0.00560676 	0.00255119 	-0.00011737 	-0.01242824 	-0.01451477 	-0.04106798 	-0.06303176 	-0.04199393 	-0.03143881 	-0.00913942 	-0.00121781 	-0.00259659 	-0.00144490 	0.00121130 	0.01622261 	0.00429545 	0.00219151 	-0.04283167 	-0.07185047 	-0.00756953 	0.02477880 	0.01543495 	-0.01263829 	-0.03020845 	-0.01437238 	0.00142893 	-0.00487140 	-0.02219030 	-0.04643677 	-0.02954895 	-0.01223764 	0.01648501 	0.04272472 	0.05205553 	0.01039789 	-0.00746785 	-0.00312257 	0.00198778 	0.00095137 	-0.00141193 	-0.00781679 	-0.01232057 	-0.02594551 	-0.03073022 	-0.02181395 	0.00117350 	0.00255879 	0.00275470 	-0.00054510 	0.00048648 	0.00013451 	0.00016082 	-0.00645154 	-0.00076865 	0.02099421 	0.04451979 	0.00126219 	-0.01410176 	0.00514590 	0.00650761 	-0.00253403 	0.00030917 	-0.00427877 	-0.00683380 	-0.03301328 	0.01012111 	0.04981993 	0.08903232 	0.04039720 	0.03644378 	0.04298325 	0.02971344 	-0.00204381 	-0.00040730 	-0.00775235 	-0.01938777 	-0.06491368 	-0.00892334 	-0.00631507 	-0.01970510 	-0.02047638 	0.02245067 	0.03401557 	0.02037163 	-0.00905304 	-0.00119712 	-0.00278967 	-0.01270008 	-0.05880485 	-0.04954029 	-0.06056798 	-0.05121734 	-0.04586351 	-0.02918792 	-0.00330938 	-0.01571122 	-0.01079320 	-0.00103914 	0.00329219 	-0.01772328 	-0.04961090 	-0.06513801 	-0.07472620 	0.01819829 	-0.06110255 	-0.05953942 	-0.01709629 	-0.01857888 	-0.00305827 	0.00197440 	0.00548669 	-0.02188863 	-0.04714767 	-0.03820308 	0.00224982 	0.08877706 	-0.05441974 	-0.07268888 	-0.00451947 	-0.00386318 	0.00138386 	0.00211642 	0.00466361 	-0.02034200 	-0.02350530 	-0.01664651 	0.07306698 	0.14619298 	-0.08218080 	-0.04497443 	0.01325596 	0.00174175 	-0.00038098 	0.00145703 	0.00738676 	-0.02978441 	-0.02557291 	-0.02227020 	0.04428406 	0.03416438 	-0.11756524 	-0.02354308 	0.03650138 	-0.00279026 	0.00101575 	0.00215047 	0.00327333 	-0.02650244 	-0.02284872 	-0.03867525 	0.01718847 	-0.08964990 	-0.12281895 	0.00544026 	0.01753157 	-0.01867291 	-0.00127898 	0.00311715 	0.01380968 	0.02186401 	0.00354479 	-0.01968710 	-0.07611650 	-0.12109174 	-0.06627429 	0.00361706 	-0.02098234 	-0.02270468 	-0.00156410 	0.00280417 	0.02963471 	0.04211917 	0.03947122 	0.01296419 	-0.05074816 	-0.02345639 	-0.00899635 	0.00704300 	-0.00864235 	-0.00253791 	0.00181733 	0.00131579 	0.01528937 	0.01437432 	0.00315401 	-0.03626640 	-0.02151117 	-0.00855341 	-0.00484368 	0.00138554 	0.00344432 	0.00050655 	0.00131042 	0.00011613 	-0.00003281 	0.00053502 	-0.00593434 	-0.00334879 	-0.00073347 	0.00832906 	-0.01501749 	-0.00675175 	0.00066554 	0.00133603 	-0.00139920 	0.00010164 	-0.00323423 	-0.00412220 	-0.01212085 	0.02213560 	0.02284583 	0.04504235 	0.00522512 	-0.00609376 	0.01892059 	0.00952409 	-0.00599654 	-0.00090331 	-0.00799952 	-0.01595467 	-0.02943443 	0.00997000 	0.03297363 	0.03542919 	-0.02633498 	-0.03912254 	0.00122379 	0.01255160 	-0.00672440 	-0.00077823 	-0.00503747 	-0.01692592 	-0.04843432 	-0.03010792 	0.00845292 	0.00853792 	-0.04621619 	-0.04585549 	-0.01230544 	-0.00455384 	-0.01162661 	-0.00007423 	0.00057693 	-0.00699614 	-0.03889509 	-0.06795605 	-0.03023258 	0.08317302 	0.02134763 	-0.01697937 	-0.01143445 	-0.00874180 	-0.00651285 	0.00011643 	0.00283386 	-0.00777452 	-0.03121808 	-0.08245461 	-0.05541706 	0.10391035 	0.03223811 	-0.00823573 	0.00347916 	0.00067190 	-0.00193793 	0.00146614 	0.00380924 	-0.01222328 	-0.03806172 	-0.04931788 	-0.03116446 	0.10837787 	0.01487048 	-0.02820276 	0.00969831 	0.00258385 	-0.00416794 	0.00071120 	-0.00037497 	-0.01653715 	-0.03562663 	-0.03352943 	0.00242476 	0.07824917 	-0.02049746 	-0.03842168 	0.01151294 	0.00545849 	-0.00053507 	-0.00044974 	-0.00311807 	-0.01927826 	-0.01815217 	-0.03034413 	0.00140996 	0.01452503 	-0.04512959 	-0.01563452 	0.01055423 	0.00161518 	0.00070018 	-0.00124321 	0.00030482 	-0.00936965 	-0.02419387 	-0.01894647 	-0.01380176 	-0.02646007 	-0.00855896 	0.03136506 	0.00406457 	-0.01428890 	-0.00331962 	0.00066302 	0.00100948 	0.01030148 	-0.00201675 	0.01277495 	-0.00713938 	-0.00889798 	0.03284255 	0.05439332 	0.00459614 	-0.01077236 	-0.00358761 	0.00086449 	0.00264337 	0.01337139 	0.02499231 	0.01351105 	-0.01295820 	-0.01496011 	0.00856675 	0.02093758 	0.00435305 	0.00081563 	-0.00007143 	0.00021769 	0.00013444 	-0.00602550 	-0.00950789 	-0.00612970 	-0.00717782 	-0.01444123 	-0.00382620 	0.00100036 	0.00196666 	0.00072318 	0.00017946 	-0.00047197 	-0.00527680 	-0.02120027 	-0.01392364 	0.01266491 	-0.02248569 	-0.02162497 	-0.01604170 	0.00704049 	0.00331326 	-0.00453276 	-0.00516390 	-0.00423556 	-0.01151748 	-0.03145586 	-0.03508599 	0.00944879 	-0.01810838 	-0.05505345 	-0.08917096 	-0.08277515 	-0.03434812 	-0.01840133 	-0.00998617 	-0.00269100 	-0.01403821 	-0.03464834 	-0.03452883 	0.00013773 	0.00131354 	-0.04060816 	-0.10165842 	-0.07881619 	-0.02757774 	-0.02757371 	-0.01505329 	0.00164996 	-0.00097086 	-0.02759139 	-0.03797342 	0.00712341 	0.03336004 	-0.00308570 	-0.04947077 	-0.03722944 	-0.01531961 	-0.02030815 	-0.00555260 	-0.00092472 	0.00110065 	-0.01956710 	-0.03951452 	-0.03857763 	0.02076827 	0.03619087 	-0.01624169 	-0.01074223 	-0.00909904 	-0.00974342 	-0.00105785 	0.00549923 	0.00136409 	-0.02539965 	-0.02217501 	-0.04168335 	0.07045160 	0.04123252 	-0.04237771 	-0.00863959 	-0.01187646 	-0.01213088 	-0.00179525 	0.00579403 	-0.00121691 	-0.03977656 	-0.04225796 	-0.02573003 	0.09578294 	0.00454169 	-0.06794562 	-0.02357985 	-0.00158998 	-0.00908271 	-0.00403895 	0.00852018 	-0.00329777 	-0.02871289 	-0.03547405 	-0.06869707 	0.01607647 	-0.00469411 	-0.04138523 	-0.02118376 	0.00403105 	-0.00463075 	-0.00035124 	0.01441936 	0.02416390 	0.00020917 	-0.01048933 	-0.06205203 	-0.01182128 	0.01675913 	0.02039716 	0.01027118 	-0.00235627 	-0.01426199 	-0.00088873 	0.00180569 	0.03074031 	0.01086127 	-0.00246597 	0.01185440 	0.03138197 	0.05044403 	0.07891586 	0.03954745 	-0.00189157 	-0.01383343 	-0.00163288 	0.00210900 	0.00568798 	0.00988118 	-0.01744508 	-0.01206320 	0.00896671 	0.00350547 	0.01878204 	0.01980698 	0.00494605 	-0.00096470 	0.00016775 	0.00035912 	0.00044266 	-0.00092163 	-0.00290987 	-0.00629032 	-0.00825875 	-0.00221228 	-0.00047344 	-0.00381633 	-0.00270149 	-0.00091100 	-0.00019131 	-0.00005492 	-0.00295614 	-0.01662199 	-0.05208258 	-0.08570428 	-0.08767322 	-0.05216153 	-0.03193583 	-0.02482630 	-0.02284917 	-0.01755219 	-0.01071360 	-0.00347815 	-0.00970851 	-0.03413024 	-0.06880479 	-0.12081077 	-0.12624326 	-0.09269704 	-0.08604559 	-0.08621132 	-0.05180611 	-0.01889213 	-0.00957123 	-0.00491613 	-0.01509967 	-0.02655499 	-0.03648392 	-0.07943708 	-0.09635480 	-0.05673748 	-0.06700464 	-0.08209898 	-0.04552943 	-0.02314860 	-0.01125495 	0.00047875 	-0.00746688 	-0.01524803 	-0.00263468 	-0.02609306 	-0.03972737 	-0.03347892 	-0.06288154 	-0.05268679 	-0.02770298 	-0.02061978 	-0.00855864 	-0.00271230 	-0.01147258 	-0.01525219 	0.00213017 	-0.00899984 	-0.01686053 	-0.00052047 	-0.01233927 	-0.03065602 	-0.01945015 	-0.01643343 	-0.00512590 	-0.00208523 	-0.01084439 	-0.01914564 	-0.00570521 	-0.02535208 	-0.02238358 	0.01715995 	-0.01196114 	-0.05828997 	-0.04227203 	-0.01771343 	-0.00720070 	0.00429560 	-0.00983152 	-0.02479327 	-0.03189730 	-0.03756957 	-0.02125944 	0.00281978 	-0.03348254 	-0.05662236 	-0.02773820 	-0.00821140 	-0.00620416 	0.00201100 	-0.01075444 	-0.01577488 	-0.03197072 	-0.03394763 	-0.01210861 	-0.01849291 	-0.05322494 	-0.02364286 	0.00462343 	-0.00441533 	-0.00493113 	0.00892050 	0.01093422 	0.00572002 	-0.02000160 	-0.03482209 	-0.06209217 	-0.05431204 	-0.01828801 	0.00124455 	-0.01597044 	-0.01776938 	-0.00998168 	0.01359111 	0.03798990 	0.04387783 	0.05441529 	0.03214661 	0.01516513 	0.03279157 	0.06857610 	0.03065437 	-0.01189080 	-0.01845526 	-0.00815447 	0.00761288 	0.01708341 	0.01637512 	-0.00686041 	-0.01404367 	0.00506101 	0.02400863 	0.02109152 	0.00737196 	0.00084798 	0.00171963 	0.00065204 	0.00042466 	-0.00016082 	-0.00792574 	-0.02219037 	0.00077524 	0.01417569 	0.01085861 	-0.00699229 	0.00469684 	0.00345830 	0.00372910 	-0.00144786 	-0.00256214 	-0.00204157 	-0.03180377 	-0.03518988 	0.04596688 	0.07840971 	0.08391471 	0.07907711 	0.07985711 	0.05695700 	0.01869447 	-0.00382301 	-0.00378767 	-0.01209859 	-0.04864316 	-0.03481156 	0.02046864 	0.00907065 	0.06214227 	0.13121636 	0.10217088 	0.04722849 	-0.00143774 	-0.01032525 	-0.00201542 	-0.00973631 	-0.04407496 	-0.02674109 	-0.00460257 	-0.02320004 	0.07630097 	0.10451207 	0.03516527 	-0.00514415 	-0.02458936 	-0.01285867 	0.00094502 	0.00046339 	-0.03498213 	-0.01585785 	0.01005318 	0.09184818 	0.13228899 	0.01852079 	-0.01734825 	-0.01735569 	-0.01391388 	-0.00176385 	0.00664118 	-0.00165350 	-0.04178648 	-0.01923647 	0.06904637 	0.18287282 	0.08184210 	-0.04574300 	-0.01959531 	-0.00496886 	-0.00043586 	0.00176319 	0.01331455 	-0.00016763 	-0.04200958 	-0.00154467 	0.07933830 	0.21555202 	0.00892133 	-0.05621329 	-0.00910005 	0.00052498 	-0.00151223 	0.00117603 	0.01446273 	-0.01180206 	-0.04142223 	-0.00272791 	0.03702790 	0.12899703 	0.02962280 	-0.03335394 	0.01014145 	-0.00005087 	-0.00491084 	0.00164467 	0.01490096 	0.00251608 	-0.00926229 	-0.00485446 	-0.01331207 	0.10970847 	0.01505498 	-0.02446888 	0.00457106 	-0.01630863 	-0.00834680 	0.00073788 	0.01769385 	0.04575939 	0.02943940 	0.01453432 	0.01465117 	0.04543763 	-0.00580301 	-0.02017195 	-0.02039519 	-0.02003692 	-0.00802987 	0.00061022 	0.01562813 	0.04078919 	0.02926777 	0.03232811 	0.03983630 	0.03550113 	0.00873683 	0.01793839 	-0.00785513 	-0.00657257 	-0.00160973 	0.00180988 	0.00722288 	0.01072037 	-0.00579719 	-0.03372201 	-0.06003410 	-0.03896072 	-0.02881981 	-0.00302897 	0.00032646 	0.00343797 	0.00080722 	0.00099636 	
0.00047840 	0.00083350 	0.00226853 	0.00806146 	0.01921022 	0.01186271 	-0.03348402 	-0.05747925 	-0.05464106 	-0.03726454 	-0.00869173 	-0.00127085 	0.00071433 	-0.00177865 	0.01420747 	0.01247753 	0.03422377 	0.00275222 	0.03028096 	0.03797381 	-0.02826262 	-0.04930997 	-0.03342513 	-0.02752633 	-0.00156955 	0.00081668 	0.02766509 	-0.00212843 	-0.00729736 	0.03302832 	0.02327257 	-0.00180201 	-0.10738914 	-0.13729997 	-0.10854798 	-0.04530323 	-0.01364514 	-0.01317728 	-0.00652867 	-0.01150304 	0.04200311 	-0.00627653 	-0.05517381 	-0.06847696 	-0.09114464 	-0.08811985 	-0.06920944 	-0.01348868 	-0.01378287 	0.02139305 	0.02951862 	0.07381451 	0.00225102 	-0.04997958 	-0.05228293 	-0.10714958 	-0.09455524 	-0.05975776 	-0.04101282 	-0.00854126 	0.00119500 	-0.00292014 	0.02347664 	0.05816721 	0.03653256 	0.09556077 	0.01329557 	-0.08369087 	-0.07929271 	-0.02852117 	0.03212771 	0.05934611 	-0.01018085 	0.01585998 	0.13042486 	0.17255151 	0.19168575 	0.08956610 	0.03309536 	0.06455617 	0.04322239 	0.02484242 	0.08145931 	0.08202983 	0.01011970 	0.06938207 	0.13258219 	0.14824039 	0.12302855 	0.07006539 	0.08278992 	0.02373514 	0.05089022 	0.05021092 	0.07385855 	0.10347204 	0.01124456 	0.03903966 	0.06051454 	0.06836728 	0.06190612 	0.04397975 	0.06169632 	0.04428357 	0.04110229 	0.02245085 	0.06334519 	0.08221289 	0.00655873 	0.01427428 	0.00115909 	-0.03091415 	-0.03379256 	0.00039220 	0.02956763 	0.01572608 	0.02552986 	0.00791778 	0.05605133 	0.05390362 	0.01246306 	-0.00610484 	-0.02565227 	-0.01937085 	-0.02504043 	-0.00478703 	-0.02718011 	0.00929331 	0.05946682 	0.05082825 	0.05226263 	0.01319145 	-0.01559681 	-0.04587428 	-0.08214450 	-0.10240181 	-0.10573608 	-0.09357695 	-0.05141305 	-0.02230367 	-0.02995361 	-0.01986459 	-0.00480582 	0.00282882 	-0.00031674 	0.00087084 	0.00517870 	0.01551572 	0.02980780 	0.04031382 	0.03504476 	0.00905201 	-0.02024403 	-0.02262204 	-0.00865823 	-0.00184751 	-0.00291086 	-0.00273120 	0.00246905 	0.01272016 	0.01026857 	0.01412050 	0.03357081 	0.04649315 	0.02070317 	-0.00522682 	-0.02947466 	-0.01480868 	-0.01011646 	-0.01384070 	-0.01430809 	-0.02052332 	-0.01252302 	-0.00783251 	-0.01051778 	-0.03722810 	-0.05062716 	-0.04633467 	-0.04684409 	-0.02189024 	-0.01541612 	-0.02229156 	-0.03172008 	0.00205202 	0.00888003 	-0.00867257 	-0.04470978 	-0.06085323 	-0.05963596 	-0.02661936 	-0.00785233 	-0.00100687 	-0.00897035 	0.00008778 	-0.00086490 	0.00760879 	-0.00068966 	-0.03524110 	-0.04435438 	-0.03552472 	-0.03799682 	-0.04613451 	-0.02791369 	-0.00329028 	-0.01183236 	-0.03695371 	-0.04258129 	-0.00272862 	0.04074838 	0.01977392 	-0.02249663 	-0.04957332 	-0.04238388 	-0.03847235 	-0.01308943 	0.02859951 	-0.00186822 	-0.00952808 	-0.00218200 	0.03898455 	0.06334977 	0.04516697 	0.00641082 	-0.02346863 	-0.05006061 	-0.01865964 	0.03264454 	0.06527795 	0.01884489 	0.03319208 	0.02303227 	0.00842018 	0.01421184 	0.00072156 	-0.00967941 	0.00661897 	0.01044773 	0.04032602 	0.07964449 	0.08376373 	0.00320613 	0.03237947 	0.02353591 	0.00564641 	-0.01499677 	-0.02170261 	0.00776988 	0.04132700 	0.07254833 	0.09910601 	0.10423611 	0.06704959 	0.00216386 	0.00317407 	-0.02435499 	-0.01512516 	-0.05470607 	-0.07493547 	-0.03805137 	0.03435159 	0.07301549 	0.08384153 	0.07643155 	0.03642423 	0.00256441 	-0.00224383 	-0.01396556 	-0.00937449 	-0.00781781 	-0.03145409 	-0.02858496 	0.04302842 	0.09437540 	0.07819836 	0.04552831 	0.01477001 	-0.01171627 	-0.03617964 	-0.06018624 	-0.07505333 	-0.06672519 	-0.04924292 	-0.03005264 	-0.01753867 	-0.01498383 	-0.01175121 	-0.00304944 	0.00029653 	-0.00342094 	-0.00390022 	-0.00079672 	0.00816299 	0.01841828 	0.01730824 	0.01457089 	0.02329239 	-0.00087951 	-0.01722392 	-0.00710434 	0.00029211 	-0.00365884 	-0.01521071 	-0.01380290 	0.00837258 	0.03030854 	0.06305179 	0.08821160 	0.09718060 	0.05865657 	0.03112417 	-0.01228699 	-0.01699241 	-0.01040591 	-0.04236671 	-0.07678679 	-0.06801010 	-0.03482904 	0.02355173 	0.02413449 	-0.01641603 	-0.04280278 	-0.02382363 	-0.03517683 	-0.03330910 	-0.02001050 	-0.04825187 	-0.08198915 	-0.10358064 	-0.05292191 	-0.01030251 	0.01503392 	-0.05123242 	-0.07621565 	-0.06217734 	-0.03694200 	-0.00898741 	-0.01279693 	-0.01476959 	-0.03622789 	-0.08193501 	-0.10526240 	-0.09690461 	-0.06095179 	-0.02094300 	-0.03493495 	-0.07768097 	-0.07116136 	-0.00960424 	-0.00105917 	0.00030911 	-0.02316274 	0.01651284 	0.00374556 	0.00192759 	-0.00947043 	-0.08295367 	-0.09279642 	-0.05229072 	-0.06233086 	0.01523039 	0.02311075 	0.03409983 	0.01819568 	0.02661126 	0.05847431 	0.08743154 	0.09700214 	-0.05177224 	-0.13683107 	-0.06929455 	-0.05501907 	0.03920873 	0.02131825 	0.02762783 	0.00296638 	-0.02982495 	-0.00283352 	0.02762330 	-0.00755150 	-0.03306592 	-0.08897859 	-0.01316551 	-0.00103914 	0.06046315 	-0.01115482 	-0.00125374 	-0.03299537 	-0.05941654 	-0.07881639 	-0.02671830 	0.02155246 	0.04849491 	0.04610532 	0.11284198 	0.07766350 	0.05124692 	-0.01191616 	-0.03429233 	-0.09487358 	-0.07775488 	-0.07420380 	-0.06535707 	0.03113223 	0.11205994 	0.16144362 	0.14707777 	0.09905223 	0.03518371 	-0.00699751 	-0.00956963 	-0.01656944 	-0.03850509 	-0.06367356 	-0.07056940 	-0.02228359 	0.09022632 	0.15807848 	0.10073365 	0.04997206 	0.01833956 	-0.00308966 	-0.00963445 	-0.02012040 	-0.04736385 	-0.07462341 	-0.05457129 	-0.05150748 	-0.03360306 	-0.00739328 	-0.01002949 	-0.00714595 	0.00004368 	0.00046230 	-0.00082402 	0.00280129 	0.00558967 	0.00100264 	-0.01858545 	-0.06908463 	-0.05387568 	-0.04881402 	-0.02681042 	-0.00706860 	-0.00426031 	0.00017220 	-0.00584343 	-0.00006351 	-0.00218680 	-0.00847137 	-0.02057141 	-0.07697435 	-0.07688985 	-0.10369266 	-0.04893707 	-0.03716545 	-0.01938498 	-0.00031915 	-0.01012787 	-0.00475928 	-0.02211381 	-0.01422907 	0.00467031 	-0.03943057 	-0.04808551 	-0.07346661 	-0.01451045 	-0.03200852 	-0.01108395 	-0.00149959 	-0.00543473 	-0.01264216 	-0.03991665 	-0.01149121 	-0.03590589 	-0.04446829 	0.00445314 	0.00436980 	0.03267507 	-0.02234834 	-0.00946442 	-0.00937172 	-0.03103850 	-0.10528404 	-0.09556927 	-0.13903208 	-0.11975503 	-0.02901415 	0.02021817 	0.05743173 	0.05200480 	-0.02636877 	0.00179356 	-0.01297306 	-0.07604586 	-0.15431432 	-0.16224277 	-0.18431723 	-0.04820804 	0.00893197 	0.05658207 	0.08404689 	0.03868918 	-0.05571327 	0.01826803 	-0.00496492 	-0.05220801 	-0.06533582 	-0.07847960 	-0.04927556 	0.00258285 	0.01498419 	0.09750064 	0.05662626 	0.01721949 	-0.07041244 	0.02940702 	0.00280473 	0.03269675 	0.04472394 	0.03207279 	0.06355831 	0.05539321 	0.04028556 	0.04919802 	-0.01184833 	-0.02091807 	-0.08968610 	0.03903650 	0.00766438 	0.07038206 	0.08003452 	0.10486856 	0.06824765 	0.04741643 	-0.00788189 	-0.00140118 	-0.06114245 	-0.04585149 	-0.07189375 	0.02599656 	0.01279110 	0.06847116 	0.06433936 	0.05676044 	-0.03013571 	-0.04409395 	-0.07138167 	-0.05184703 	-0.05682862 	-0.05292095 	-0.01832872 	0.00356832 	0.01165051 	0.02121007 	-0.01932128 	-0.03829125 	-0.08608577 	-0.09892980 	-0.11111391 	-0.05574227 	-0.01662320 	-0.02996855 	0.00268451 	0.00136068 	0.00284026 	-0.01897478 	-0.05431914 	-0.09592579 	-0.10891912 	-0.10808222 	-0.09561826 	-0.03850034 	-0.02582230 	-0.03029804 	-0.00752678 	0.00076389 	0.00025910 	-0.00230821 	0.00063679 	0.00448089 	0.00417643 	-0.00921701 	-0.02821864 	-0.01002467 	-0.01305761 	-0.01249908 	-0.00439888 	0.00097211 	0.00050144 	-0.00799215 	-0.00293579 	0.00363686 	0.00320266 	0.01101352 	0.00595987 	0.02881237 	0.02685472 	0.02244323 	-0.00598105 	-0.00919936 	-0.00292862 	-0.02045096 	-0.03249418 	-0.03763384 	-0.02226212 	0.00513848 	0.01229334 	0.03720823 	0.03819688 	0.03336894 	-0.01041603 	-0.02458313 	-0.00345965 	-0.01804773 	-0.03859249 	-0.06457122 	-0.04331291 	-0.00028289 	0.03582738 	0.02348968 	0.01533173 	0.00386996 	-0.02403858 	-0.02484324 	-0.00340475 	-0.01384267 	-0.03615743 	-0.06862770 	-0.08505570 	-0.05672753 	-0.02191213 	0.03545478 	0.01903877 	-0.01845383 	-0.05639405 	-0.01664506 	-0.00286797 	-0.03647731 	-0.09813899 	-0.09299993 	-0.12573791 	-0.08386525 	-0.03566084 	-0.02863073 	-0.01388218 	-0.02813332 	-0.07705437 	-0.01503425 	-0.00105660 	-0.04405924 	-0.10620250 	-0.11710450 	-0.09618174 	-0.00796910 	0.00098289 	-0.07099203 	-0.08277451 	-0.04998161 	-0.09613761 	-0.00219533 	-0.00198956 	-0.01907009 	-0.04621503 	-0.07730585 	-0.05424569 	0.03389480 	-0.01794305 	-0.03985632 	-0.09369784 	-0.06112635 	-0.07746479 	0.01428382 	-0.01075350 	0.01229066 	0.00192915 	0.00160117 	-0.00253026 	0.02617096 	-0.01616997 	-0.02753525 	-0.04707116 	-0.01738854 	-0.03673812 	0.01525678 	-0.00320221 	0.01511748 	0.00509913 	0.03371191 	0.01718451 	-0.01833983 	-0.00738639 	0.01731429 	0.03922639 	0.01993661 	0.01103273 	0.01506927 	0.00369109 	0.01681362 	0.00865462 	-0.00934694 	-0.02994027 	-0.04194799 	-0.02347266 	0.02951149 	0.06915555 	0.01486942 	0.00777325 	0.00820843 	0.00031289 	-0.00109621 	-0.02165178 	-0.07022131 	-0.09527346 	-0.06383366 	-0.06692973 	-0.03718592 	0.00500573 	-0.01042512 	-0.00792243 	0.00022165 	-0.00250022 	0.00036438 	0.00069398 	0.00666603 	0.00843965 	0.01350069 	0.02662766 	0.01436374 	-0.01921068 	-0.00883283 	-0.00220612 	0.00026028 	-0.00528077 	-0.01312757 	-0.01464084 	-0.00841121 	-0.00103169 	0.02042206 	0.04504595 	0.06267570 	0.04835201 	0.02044355 	-0.00963403 	-0.00333675 	-0.00586433 	-0.03489278 	-0.05276997 	-0.04464193 	-0.00654206 	0.05986800 	0.09324005 	0.07095203 	0.06768262 	0.02128108 	-0.02736214 	-0.00941914 	-0.01868579 	-0.04577008 	-0.05698818 	-0.03900289 	0.00724196 	0.04879946 	0.06486987 	0.06229032 	0.01520751 	-0.00250489 	-0.01869342 	-0.00513121 	-0.02242827 	-0.02330776 	-0.03471887 	-0.04821884 	-0.00570495 	-0.02353107 	-0.00928777 	0.02127770 	0.01258112 	-0.05125093 	-0.03350484 	-0.00241441 	-0.02073520 	-0.07760402 	-0.09334199 	-0.10396895 	-0.12728646 	-0.14604877 	-0.11026211 	-0.11124138 	-0.04865527 	-0.06738754 	-0.06746725 	-0.00379005 	-0.01016053 	-0.06805599 	-0.12839159 	-0.14864258 	-0.11892786 	-0.08718038 	-0.06282724 	-0.13133979 	-0.11233745 	-0.06025990 	-0.04114322 	0.02668353 	0.01797806 	-0.00778971 	-0.06955656 	-0.11519594 	-0.07369380 	-0.08912142 	-0.08275296 	-0.11203112 	-0.09732306 	-0.00470837 	0.02741886 	0.06315282 	0.02329860 	0.02726427 	-0.00930793 	-0.01796660 	-0.02214162 	-0.03038201 	-0.05304444 	0.01481942 	0.04086807 	0.08770496 	0.09358405 	0.06575517 	0.00845716 	0.00072978 	0.01033400 	0.03519612 	-0.00428197 	-0.04135117 	0.02070378 	0.08464745 	0.09114604 	0.08569109 	0.07572374 	0.03211347 	0.00767819 	0.01046335 	-0.01713398 	0.02593676 	0.03146255 	-0.03582310 	-0.01779211 	0.06748803 	0.06933407 	0.03111843 	0.02549344 	0.01079360 	-0.00971363 	-0.03778812 	-0.04928853 	-0.06769486 	-0.05449874 	-0.05304687 	-0.05840133 	-0.00178966 	0.01050402 	-0.01218213 	-0.00282344 	0.00372035 	0.00017806 	0.00087306 	0.00249070 	0.00794789 	0.01380574 	0.01766240 	0.00677042 	-0.01348099 	-0.01992059 	-0.01456675 	-0.00657636 	-0.00154047 	-0.00188494 	-0.00462440 	0.00670193 	0.02904504 	0.03597217 	0.02300729 	0.00172204 	-0.00355653 	-0.02362465 	-0.04350282 	-0.02979574 	-0.01020375 	-0.00502923 	0.00154855 	0.02926691 	0.05125466 	0.05201083 	0.05819825 	0.00560630 	-0.05580641 	-0.08367645 	-0.09185536 	-0.06196155 	-0.02769008 	-0.01355848 	0.00056736 	0.02451619 	0.06913489 	0.08685574 	0.07580005 	-0.00903572 	-0.08275110 	-0.05176378 	-0.05884320 	-0.03655045 	-0.00863378 	-0.01124390 	0.03813452 	0.09948432 	0.17445053 	0.19021520 	0.09383328 	-0.01101076 	-0.04202524 	-0.04768902 	-0.05946577 	-0.01584058 	0.00112639 	0.00678840 	0.04580893 	0.09263466 	0.11698490 	0.07749621 	-0.01290482 	-0.07719135 	-0.05469447 	-0.06420714 	-0.05100702 	0.00035714 	0.01562295 	-0.01212878 	-0.01448728 	0.00355195 	0.01792604 	0.01271713 	-0.03767084 	-0.07788189 	-0.06902704 	-0.01891151 	0.04547457 	0.09237004 	0.07310073 	-0.00542598 	-0.01291860 	-0.04113168 	-0.04927636 	-0.05475764 	-0.04823666 	-0.07601115 	-0.03291295 	0.04478412 	0.11335107 	0.11926083 	0.08915591 	0.01565727 	0.01948835 	-0.01774588 	-0.02426384 	0.01934879 	0.03897418 	0.00014416 	0.04238886 	0.10484342 	0.13475110 	0.11612634 	0.07173868 	0.00198715 	0.01164360 	0.01672964 	0.01611500 	0.02441076 	0.02105835 	0.01661084 	0.06837478 	0.07514258 	0.07359181 	0.05812369 	0.02142624 	0.02031707 	0.01580436 	0.02974043 	0.03591209 	0.01413685 	-0.02143782 	-0.01110420 	0.03187213 	0.04460141 	0.03131821 	0.01990815 	0.01011747 	-0.01335745 	-0.03425876 	-0.05248201 	-0.05534533 	-0.04864442 	-0.05245402 	-0.03806949 	-0.00084027 	0.01897885 	0.00295773 	-0.00180032 	-0.00062775 	-0.00151704 	-0.00419549 	-0.00030986 	0.00543590 	-0.00959323 	-0.02198748 	-0.02036593 	-0.03562281 	-0.05868845 	-0.02667493 	-0.01039423 	-0.00071956 	-0.00363564 	-0.01508774 	-0.01437799 	-0.01332258 	-0.01126141 	0.00398261 	-0.02297867 	-0.09322422 	-0.11405811 	-0.07287820 	-0.03458269 	-0.00497692 	-0.01560516 	-0.03750544 	-0.05449123 	-0.04786866 	-0.02131754 	-0.03509901 	-0.08767182 	-0.16805847 	-0.15963791 	-0.10179778 	-0.03353610 	-0.00497227 	-0.03487405 	-0.05028051 	-0.07283158 	-0.03829489 	-0.04960084 	-0.07916515 	-0.06785037 	-0.02431870 	-0.00881076 	-0.01424485 	-0.01080886 	-0.00286517 	-0.04363802 	-0.09411147 	-0.13140589 	-0.16621603 	-0.18349244 	-0.14613973 	-0.04048127 	0.00814114 	0.06589725 	0.04119411 	-0.00729816 	0.00758598 	-0.04435442 	-0.13261554 	-0.17906141 	-0.17937113 	-0.13263063 	-0.12539692 	-0.05022308 	0.00918527 	0.03820876 	0.02993544 	-0.00945928 	0.01920828 	-0.01941877 	-0.03418538 	-0.01474763 	-0.00819469 	0.00355253 	-0.06599457 	-0.01678248 	-0.04039697 	-0.01377721 	0.00470278 	0.00658898 	0.03589179 	0.02780403 	0.06938492 	0.10348105 	0.10389296 	0.05741561 	-0.01312910 	-0.00679992 	-0.06610310 	-0.00511202 	-0.00266738 	0.00953736 	0.03818303 	0.04393499 	0.08113941 	0.08481667 	0.09929328 	0.07688443 	-0.00425923 	-0.05748822 	-0.06300522 	-0.04944586 	-0.03134430 	0.00618599 	0.02235401 	0.03666441 	0.03362744 	0.02735698 	0.03633984 	-0.00841387 	-0.11564114 	-0.14298031 	-0.10475391 	-0.05215311 	-0.02806918 	0.01652621 	0.00659319 	0.00992660 	-0.01979625 	-0.01418991 	-0.02281901 	-0.09287953 	-0.16345188 	-0.14013535 	-0.08009328 	-0.04819512 	-0.01985507 	-0.00173773 	0.00186002 	-0.01683210 	-0.05377298 	-0.07730307 	-0.11297546 	-0.11042633 	-0.11235100 	-0.07722208 	-0.05070354 	-0.04287443 	-0.02193709 	-0.00455538 	0.00045930 	
0.00021748 	-0.00026364 	-0.00094541 	-0.00656194 	-0.01271524 	-0.01018325 	-0.00532385 	-0.02713369 	-0.05011467 	-0.02865587 	-0.02008996 	-0.01270073 	0.00462750 	0.02503875 	0.02845864 	0.02266021 	0.02364062 	0.01615361 	-0.03670738 	-0.11852325 	-0.08543497 	-0.06207984 	-0.03584910 	-0.02507005 	0.01373708 	0.02995011 	0.02910450 	0.05561032 	0.07212623 	0.04473565 	-0.00242195 	-0.08165170 	-0.10916848 	-0.11627839 	-0.06284651 	-0.03179314 	-0.00696316 	0.02301681 	0.05382339 	0.10792057 	0.09445912 	0.08002737 	0.03932577 	0.02873138 	-0.00785373 	-0.06637840 	-0.10109153 	-0.08669189 	0.00828769 	0.03716217 	0.05033414 	0.10321202 	0.17420742 	0.14974150 	0.11527038 	0.12910472 	0.14079595 	0.03824585 	-0.06185107 	-0.04854134 	-0.00685744 	-0.02293362 	0.00381279 	0.08716394 	0.14461306 	0.12348047 	0.13743529 	0.12226925 	0.08915094 	-0.01211463 	-0.02318793 	-0.01246228 	-0.01065300 	-0.01732637 	-0.03219462 	-0.04505767 	-0.06052672 	-0.02517718 	-0.00561700 	-0.04554014 	-0.06687465 	-0.05295696 	-0.01911085 	0.00296543 	0.01078140 	-0.01749396 	-0.06308799 	-0.05701171 	-0.09541205 	-0.08342995 	-0.10222130 	-0.02062127 	-0.01360889 	-0.07575217 	-0.05181531 	-0.03067750 	0.01706984 	-0.01524842 	-0.01893461 	-0.02921457 	-0.04194029 	0.01220257 	0.07930022 	0.05674003 	-0.01329247 	-0.00903772 	-0.05259874 	-0.06364291 	0.02642633 	0.00665170 	0.00820905 	0.02009922 	0.03188479 	0.04493433 	0.08403164 	-0.00894246 	-0.01162623 	-0.00554245 	-0.06958598 	-0.03828196 	0.01308840 	0.01442901 	0.02086563 	0.00005913 	0.01327405 	0.05740921 	0.08544075 	0.09559921 	0.04334913 	0.02263648 	-0.01498632 	-0.00951520 	0.01118199 	0.02981435 	0.03296476 	0.03766639 	0.04351224 	0.06184531 	0.07710617 	0.06944490 	-0.00201539 	-0.00763066 	-0.00632949 	-0.00159392 	0.00057362 	0.00100426 	-0.00283477 	-0.00203425 	0.01134325 	0.02723930 	0.01983717 	0.00186349 	-0.00832516 	-0.01480216 	-0.00741021 	-0.00285184 	0.00777136 	0.01490630 	0.02093021 	0.03961009 	0.05632377 	0.05762842 	0.00725538 	-0.05955156 	-0.03812559 	-0.05103985 	-0.04437398 	-0.01632074 	0.00853854 	0.00537195 	0.00627534 	0.03122221 	0.05971137 	0.05524647 	0.00244447 	-0.05450917 	-0.06352326 	-0.07437140 	-0.08083238 	-0.02678717 	-0.00900212 	0.00633089 	0.02363069 	0.03528471 	0.02578570 	-0.00002219 	-0.04661222 	-0.07918641 	-0.07698755 	-0.09683486 	-0.10403067 	-0.05443583 	-0.00059633 	-0.00016025 	-0.01055702 	-0.01156914 	0.01251194 	0.03965833 	0.00501894 	-0.03091154 	-0.04555327 	-0.05852592 	-0.05364734 	-0.03112702 	-0.01183266 	-0.02264595 	-0.00557799 	0.01137584 	0.03875089 	0.04285692 	-0.01488617 	-0.02119476 	-0.00275018 	-0.02557571 	-0.03334809 	-0.00985617 	-0.00018685 	-0.01733867 	-0.00880512 	0.02254314 	0.05059047 	0.01786258 	-0.00904106 	0.02249996 	0.02030851 	0.00345244 	-0.02431594 	-0.00978938 	0.01461706 	-0.00108267 	0.00266419 	0.01638488 	0.04166431 	0.00925637 	-0.00802810 	0.02407944 	0.02012807 	-0.02172739 	-0.05929594 	-0.03360127 	0.04403963 	0.02928456 	0.00029742 	-0.00067091 	-0.01575636 	-0.02996723 	-0.00293012 	-0.00378216 	-0.05232878 	-0.05610155 	-0.06107245 	-0.04251149 	0.03969232 	0.03732803 	0.02488628 	0.01832953 	0.01780896 	-0.01302433 	-0.01508337 	-0.04001758 	-0.06855011 	-0.06932427 	-0.07258219 	-0.03330158 	0.02362772 	0.04745917 	0.01975150 	0.01650885 	0.00599514 	0.01764891 	0.01598002 	-0.00282776 	-0.02623222 	-0.02555816 	-0.02546343 	-0.01082018 	0.00825897 	0.02462260 	0.05002273 	0.05714185 	0.04475119 	0.03653102 	0.02438469 	0.00334687 	-0.03075593 	-0.01797121 	-0.00774328 	-0.00154258 	0.00179919 	0.00390535 	0.00107613 	-0.00028447 	0.00328924 	0.01814847 	0.02160460 	-0.00262059 	-0.00684651 	-0.01569691 	-0.01580298 	-0.00468958 	0.01028715 	0.00467522 	-0.00797650 	-0.00398516 	0.04014097 	0.07899958 	0.10576703 	0.03753323 	0.01644064 	0.02889662 	-0.02774389 	-0.01433681 	-0.00328326 	-0.00560637 	-0.02417047 	-0.01012894 	0.03962751 	0.07451382 	0.04056055 	0.00357258 	-0.00974655 	0.00865473 	-0.05086700 	-0.03159675 	-0.02575290 	-0.02856412 	-0.03848639 	-0.05192217 	-0.07100279 	-0.08725691 	-0.10931810 	-0.09392542 	-0.10872487 	-0.07248452 	-0.08270216 	-0.07614897 	-0.01115801 	-0.02062662 	-0.04071581 	-0.08870193 	-0.10443515 	-0.12426838 	-0.10385808 	-0.09318630 	-0.09285969 	-0.09255289 	-0.06719730 	-0.04244225 	-0.00394339 	-0.03180414 	-0.04690946 	-0.03626294 	-0.07391483 	-0.06560382 	-0.06313435 	-0.06808882 	0.01347522 	0.01372781 	-0.05483381 	-0.02409697 	0.01666893 	-0.01587107 	-0.04826928 	-0.04190522 	-0.07280679 	-0.08255541 	-0.07447828 	0.04864864 	0.09541165 	0.07997258 	0.00640858 	-0.01682789 	0.04748882 	0.03014456 	0.04695442 	0.07540277 	0.03113263 	0.02353790 	0.02146185 	0.09099555 	0.07297608 	0.02920856 	-0.00435443 	-0.04385407 	0.04936345 	0.09342087 	0.10679120 	0.16029531 	0.17133600 	0.12629053 	0.03861092 	0.01853094 	-0.02752837 	-0.07710176 	-0.05266544 	-0.04467611 	0.03135233 	0.06592509 	0.05217574 	0.06156392 	0.05990197 	0.02528172 	-0.01890930 	-0.04863599 	-0.08320580 	-0.11365108 	-0.08340561 	-0.04594878 	0.02541082 	0.05349547 	0.06338459 	0.01595703 	-0.00294226 	0.00215758 	-0.02550879 	-0.07356291 	-0.06109759 	-0.05391914 	-0.04015571 	-0.01841867 	0.00329379 	0.01502893 	0.04715718 	0.07161537 	0.06515832 	0.00433651 	-0.04176999 	-0.07710522 	-0.05740718 	-0.03645931 	-0.01447186 	-0.00178557 	-0.00020123 	0.00216067 	0.00392755 	0.00306827 	-0.00108149 	-0.00590864 	-0.00684366 	-0.04520990 	-0.04499724 	-0.02258274 	-0.01844385 	-0.00687592 	0.00216235 	0.01750155 	0.00664154 	-0.01140248 	-0.02407134 	-0.01629263 	-0.01413191 	-0.05766555 	-0.04390468 	-0.02623435 	-0.04107094 	-0.01648602 	0.00443979 	0.03135442 	-0.01048694 	-0.04188344 	-0.05357584 	-0.03785283 	0.04244480 	0.04559011 	0.03554253 	0.05400662 	-0.02672973 	-0.03467339 	0.00079507 	0.02606953 	-0.03196367 	-0.08764750 	-0.13730444 	-0.07064617 	0.06481054 	0.13092874 	0.12718652 	0.14241053 	-0.00128024 	-0.04044672 	-0.00289603 	-0.01132858 	-0.07590807 	-0.13134335 	-0.13450906 	-0.07292491 	0.01405955 	0.07452170 	0.06937362 	0.05191721 	-0.03285720 	-0.01650823 	-0.00220067 	-0.03366534 	-0.06766380 	-0.06258114 	-0.07431627 	-0.03630810 	-0.03678839 	-0.07652980 	-0.05176658 	-0.06906370 	-0.05757915 	-0.01029748 	0.00327852 	-0.03870313 	-0.08016428 	-0.03355861 	-0.09187044 	-0.08413432 	-0.14303234 	-0.07771121 	-0.06833526 	-0.05157051 	-0.01744217 	-0.01966662 	0.01624436 	-0.03833893 	-0.08367123 	-0.08231570 	-0.18601820 	-0.17748892 	-0.18641196 	-0.01376315 	-0.01514423 	-0.01905834 	0.01858601 	-0.03532792 	0.03425079 	-0.01622093 	-0.05084228 	-0.08533757 	-0.12272469 	-0.13776055 	-0.08377586 	0.02091243 	0.00940565 	0.02219127 	0.02131948 	-0.03698356 	0.02633345 	0.00779759 	-0.03832695 	-0.06189138 	-0.06058425 	-0.05500372 	-0.00665369 	-0.01763462 	0.00229124 	0.01634754 	-0.01796577 	-0.01470336 	0.01126810 	0.01812514 	0.00509113 	-0.01640245 	-0.04106690 	-0.03677385 	-0.06595635 	-0.03043063 	0.02524935 	-0.02409358 	-0.02010561 	-0.00817473 	0.00441172 	0.00848530 	0.01534618 	0.00639496 	-0.03238348 	-0.06861777 	-0.07638203 	-0.05098861 	-0.03129171 	-0.03167776 	-0.00769435 	-0.00124050 	0.00052340 	0.00235240 	0.00181609 	-0.00335456 	-0.00058871 	0.00447837 	0.00843112 	-0.01079757 	-0.01313294 	-0.01384156 	-0.00917860 	-0.00252053 	0.00209980 	0.00934617 	-0.00191387 	0.00288115 	0.01022913 	0.02770561 	0.04560941 	0.00760700 	-0.00674405 	0.00787083 	-0.01754195 	-0.00914300 	-0.00396213 	0.00464618 	-0.01713991 	-0.00862885 	0.00791147 	0.03526611 	0.05366595 	0.03552145 	0.01620047 	0.02748606 	-0.02127686 	-0.02290964 	-0.00905670 	-0.00346669 	-0.03334614 	-0.05988206 	-0.08787046 	-0.09481053 	-0.03488703 	0.00392943 	-0.02164379 	0.02868440 	-0.01727606 	-0.04762524 	-0.00333133 	-0.01104719 	-0.06748811 	-0.12671414 	-0.16276383 	-0.14570732 	-0.06648760 	-0.03290384 	-0.01098168 	0.00148525 	-0.02623101 	-0.04053101 	-0.00247623 	-0.02845836 	-0.08810804 	-0.12239324 	-0.15365879 	-0.12080497 	-0.06645822 	-0.03816549 	-0.01320346 	-0.00923806 	-0.04477531 	-0.02257372 	0.00898415 	-0.01412832 	-0.04569605 	-0.05393339 	-0.07983088 	-0.07310238 	-0.05997878 	0.00066698 	0.03590665 	0.02277149 	-0.00431447 	-0.01681941 	0.02495236 	0.01384761 	0.01104534 	0.02929755 	-0.02068063 	-0.02535451 	-0.05981657 	0.03773472 	0.04740392 	0.02187624 	0.02742883 	-0.02543370 	0.02790218 	0.03407275 	0.01555287 	0.02715302 	-0.02244454 	-0.04564616 	-0.06621227 	0.01977861 	0.01703156 	-0.01389837 	0.00836624 	-0.03125766 	0.02184132 	0.03372763 	0.00918263 	0.00797903 	0.00281340 	-0.02082342 	-0.05460127 	-0.00458227 	-0.00322305 	-0.03202574 	-0.03191131 	-0.03451639 	0.01151930 	0.03293103 	0.01694305 	-0.01027997 	-0.02587766 	-0.02019697 	-0.03552672 	-0.05476629 	-0.01974609 	-0.02093761 	-0.03821240 	-0.02138181 	0.00198963 	0.01155155 	0.02072225 	0.02011400 	-0.00855208 	-0.04126685 	-0.04715342 	-0.06595302 	-0.02479390 	-0.02678221 	-0.01553641 	-0.00387476 	0.00123251 	0.00373514 	-0.00287130 	-0.00191291 	0.01692512 	0.03800347 	0.01457647 	-0.00916840 	-0.00704086 	-0.00573228 	-0.00234318 	-0.00078151 	0.00852883 	0.00022773 	-0.00976004 	0.01706407 	0.06411622 	0.09737047 	0.07883671 	0.01505859 	0.02671927 	-0.00605704 	-0.01831193 	-0.00561679 	0.00914898 	-0.00336577 	-0.02882178 	0.00690480 	0.06350017 	0.09544326 	0.07813099 	-0.00655470 	-0.02865638 	-0.00872994 	-0.06095036 	-0.01473553 	-0.01344847 	-0.01298043 	-0.02596366 	-0.00946421 	0.00729142 	-0.01834550 	-0.07662591 	-0.11552692 	-0.10617717 	-0.08657376 	-0.10298055 	-0.03419431 	-0.01962825 	-0.03552039 	-0.05075004 	-0.07822815 	-0.05296824 	-0.05501810 	-0.10352410 	-0.12474644 	-0.13325945 	-0.10768874 	-0.06786954 	-0.04287011 	-0.02368375 	-0.07178749 	-0.06599281 	-0.06880779 	-0.03403950 	0.05470017 	0.03015833 	-0.02643817 	-0.01023207 	-0.03911833 	-0.04123817 	-0.01524919 	-0.01506694 	-0.06521200 	-0.05775801 	0.01720251 	0.06862602 	0.09225953 	0.12139185 	0.10241691 	0.09689177 	0.03350154 	-0.00865778 	-0.00743043 	0.02223598 	-0.02984570 	-0.01430704 	0.05386310 	0.12548737 	0.11421877 	0.12338935 	0.10607560 	0.03106868 	0.03426310 	-0.00749829 	-0.02095491 	0.06833333 	0.01171382 	-0.02285133 	0.00604974 	-0.00406553 	-0.01402769 	0.01928281 	0.00891543 	-0.03357802 	-0.05759210 	-0.04913215 	-0.03761185 	0.04644190 	0.04058882 	0.00240530 	-0.00025983 	0.01053276 	-0.03643393 	-0.06512824 	-0.05200214 	-0.10967571 	-0.11149752 	-0.08019613 	-0.02946816 	0.01752928 	0.02727241 	0.03062836 	0.01966245 	0.01371214 	0.02587597 	-0.04804770 	-0.07663763 	-0.07509080 	-0.07572254 	-0.05431118 	-0.01827608 	0.01212854 	0.02929945 	0.05098690 	0.02294168 	0.00440282 	-0.00706360 	-0.04791710 	-0.05743437 	-0.04044790 	-0.03956347 	-0.01371752 	-0.00335013 	0.00023642 	0.00016083 	-0.00012352 	-0.00120723 	0.00186485 	0.00090842 	-0.00281622 	-0.00324437 	-0.00989304 	-0.00959918 	-0.00363752 	-0.00120627 	0.00375771 	0.01930661 	0.03107626 	0.05315032 	0.06764597 	0.05106608 	-0.02102156 	-0.06268663 	-0.09245700 	-0.08397602 	-0.04063781 	-0.01594608 	0.01460031 	0.03105243 	0.05476582 	0.09463421 	0.09820860 	0.01433199 	-0.08243828 	-0.17336495 	-0.19982861 	-0.18182626 	-0.10200261 	-0.02848573 	0.00100995 	0.02031858 	0.08034246 	0.12754798 	0.13712081 	0.06571709 	-0.00261686 	-0.07610394 	-0.13412639 	-0.12194053 	-0.10584418 	-0.05515331 	0.00261220 	0.05633125 	0.10968171 	0.14279014 	0.16887309 	0.11658884 	-0.00627458 	-0.06934340 	-0.04536078 	-0.02529416 	-0.05164062 	-0.05077141 	-0.00691609 	-0.00829659 	0.00041978 	0.01759863 	0.08391836 	0.12289429 	0.07527491 	0.03516715 	0.05497844 	0.01393788 	-0.01142153 	-0.01720892 	-0.02193030 	-0.05156780 	-0.04205558 	-0.01025711 	0.04306440 	0.06283668 	0.04981619 	0.04501798 	0.02971986 	-0.01813009 	-0.03267272 	-0.01561620 	-0.00316907 	-0.01864768 	0.02866339 	0.09616501 	0.15801081 	0.15115325 	0.11470579 	0.04100320 	-0.03262172 	-0.08046324 	-0.07613902 	-0.03437185 	0.01409421 	-0.00437485 	-0.00073881 	0.01583496 	0.02599334 	0.01111387 	0.01860080 	-0.01145372 	-0.07476194 	-0.08482013 	-0.06282694 	-0.03975196 	0.03200044 	0.02713066 	0.00995609 	-0.03199508 	-0.04157407 	-0.00458886 	-0.00396315 	0.00895262 	-0.04264722 	-0.07266030 	-0.06290817 	-0.03915249 	0.00931213 	0.01724530 	0.02720610 	0.04937935 	0.08683699 	0.10042185 	0.06082508 	0.03408688 	0.01455180 	-0.03974567 	-0.04841082 	-0.02127966 	0.01506140 	0.04170233 	0.04822276 	0.05475459 	0.04732773 	0.03520387 	0.03312757 	0.03228432 	0.00383280 	-0.01793081 	-0.01614187 	-0.00299145 	0.00266910 	0.00475717 	-0.00235242 	-0.01858996 	0.00372806 	0.02380627 	0.01019853 	-0.03755761 	-0.04644483 	-0.03357293 	-0.01639422 	-0.00378261 	0.01308799 	0.01057582 	-0.03315155 	-0.03223834 	0.00103675 	0.03021389 	0.00880726 	-0.04743212 	-0.06645030 	-0.05686915 	-0.03910279 	-0.01264333 	0.00874411 	-0.00591213 	-0.06977171 	-0.02580868 	-0.04712644 	-0.06907726 	-0.07719070 	-0.08325783 	-0.05836658 	-0.03949707 	-0.04108646 	-0.02081200 	-0.00537485 	-0.02734175 	-0.06147632 	-0.07592631 	-0.11416974 	-0.11386650 	-0.07112855 	-0.04157733 	0.01923403 	0.00831553 	-0.03057681 	-0.01857519 	-0.02205767 	-0.06100340 	-0.09698907 	-0.09854559 	-0.05529556 	-0.00255526 	0.01222574 	0.02410641 	0.02555079 	-0.02945078 	-0.01684030 	-0.00469065 	-0.04594560 	-0.11408993 	-0.07564935 	0.02556732 	0.11377986 	0.14130397 	-0.06210851 	-0.13909277 	-0.13205299 	-0.09105514 	-0.01944524 	-0.00285630 	-0.02561013 	-0.11432260 	-0.09091143 	-0.05067568 	0.00555078 	0.02867648 	-0.12942666 	-0.15207236 	-0.08532659 	-0.05502409 	-0.01180666 	-0.00487182 	0.01214105 	-0.09961898 	-0.13301696 	-0.15575075 	-0.13297756 	-0.15099533 	-0.11899017 	-0.08886471 	-0.06949675 	-0.01914280 	-0.01882734 	-0.01301334 	0.02969330 	-0.05095124 	-0.08816212 	-0.11446518 	-0.10035396 	-0.11702777 	-0.07959355 	-0.06956159 	-0.01979774 	0.01336818 	-0.02435827 	-0.01492652 	0.03333052 	-0.01219296 	-0.02903244 	-0.03655493 	-0.05550770 	-0.05942746 	-0.05933028 	-0.00316165 	-0.00232953 	0.01441773 	-0.02381440 	-0.00759752 	0.02558578 	0.02550291 	0.00925854 	-0.02722487 	-0.03918067 	-0.07362854 	-0.06623188 	-0.01011652 	-0.01666810 	-0.00914479 	-0.01200632 	-0.00297520 	0.01274993 	0.02222146 	0.02869203 	0.01226884 	-0.01570471 	-0.06960525 	-0.06335697 	-0.04069477 	-0.03101507 	-0.00797683 	-0.00288242 	-0.00035842 	
0.00049385 	-0.00046758 	-0.00691533 	-0.02626582 	-0.05483073 	-0.07190125 	-0.07426851 	-0.07350414 	-0.05157157 	-0.02314574 	-0.00324334 	0.00912640 	0.00003953 	-0.00166504 	-0.01028122 	-0.03264807 	-0.05810592 	-0.07861510 	-0.05774290 	-0.01992460 	-0.00251481 	0.04317755 	0.04916064 	0.02919703 	-0.00471767 	-0.01408161 	-0.01954014 	-0.06766883 	-0.10996658 	-0.14997712 	-0.19746475 	-0.11080835 	0.00250414 	0.06400185 	0.06592485 	0.04030632 	-0.00669905 	-0.01224905 	-0.05586843 	-0.08585177 	-0.09998937 	-0.15265857 	-0.12203352 	-0.10855901 	-0.00777748 	0.04106187 	0.06900909 	0.02847255 	-0.00059326 	-0.02346702 	-0.03975201 	-0.01147010 	-0.02225382 	-0.04081724 	-0.14442840 	-0.12190404 	-0.02337080 	0.03247841 	0.03460233 	-0.01321309 	-0.01223699 	-0.00063137 	0.02709743 	0.02619686 	0.03321064 	-0.03941619 	-0.13121054 	-0.07224642 	-0.00152377 	0.05258986 	0.02047370 	-0.01486609 	0.01616895 	0.04421409 	0.01795847 	-0.00802402 	-0.00780442 	-0.11346545 	-0.08988511 	-0.04605448 	0.04983344 	0.08183931 	0.00493544 	-0.01255399 	0.01486291 	0.01148847 	0.01921230 	0.00285556 	-0.01577346 	-0.02421314 	0.00943044 	0.03820990 	0.03316332 	0.02962739 	0.00396201 	-0.01033709 	0.00219986 	0.00744509 	0.03422765 	-0.00882518 	-0.03344592 	0.01946578 	-0.04599661 	-0.10472002 	-0.11473834 	-0.07161393 	-0.05315377 	-0.02922142 	-0.01048653 	-0.01677038 	-0.02699956 	-0.04274319 	-0.01688462 	-0.03413582 	-0.09708218 	-0.14147539 	-0.12239680 	-0.09432869 	-0.04116992 	-0.00628234 	-0.01040677 	-0.01968779 	-0.01624983 	0.00183777 	-0.03339336 	-0.05207828 	-0.03277682 	-0.03644907 	-0.05543255 	-0.01701395 	0.00239839 	0.00143915 	-0.00209410 	-0.00672687 	-0.00376706 	-0.01288209 	-0.03717088 	-0.04290252 	-0.04650719 	-0.05073688 	-0.03430518 	-0.01615082 	0.00162762 	0.00281736 	-0.00026939 	-0.00308966 	-0.01149659 	-0.02157038 	-0.03544594 	-0.04756147 	-0.05262313 	-0.03266586 	-0.01662539 	-0.00475669 	0.00032392 	0.00105536 	0.00068288 	-0.00206594 	-0.01218385 	-0.02778885 	-0.03919210 	-0.05824497 	-0.08614094 	-0.06897957 	-0.03711296 	-0.00690508 	0.01144884 	0.01268361 	-0.00212344 	0.00429484 	-0.00451505 	-0.02689874 	-0.08239574 	-0.15725821 	-0.19834636 	-0.15174107 	-0.07543028 	-0.00294691 	0.02782999 	0.01615558 	-0.00641269 	-0.00911725 	-0.01599571 	-0.05036671 	-0.07103406 	-0.13472047 	-0.13319847 	-0.09077793 	-0.06656374 	-0.02892482 	0.00672264 	0.00524060 	-0.00690735 	-0.02142544 	-0.02215712 	-0.02198565 	-0.05350675 	-0.13204652 	-0.12195199 	-0.06346575 	-0.05315015 	-0.04041170 	-0.02478817 	-0.01011659 	-0.00806053 	-0.00383044 	-0.00214698 	0.01660743 	0.03356646 	-0.00105474 	-0.01418126 	0.00757482 	-0.00086826 	0.00918216 	0.00465419 	-0.00113132 	0.01483483 	0.02835482 	0.03479964 	0.01406899 	0.06336539 	0.07908025 	0.03900389 	0.04174248 	0.05121721 	0.06240219 	0.01062906 	-0.00898667 	0.00208448 	0.01510266 	0.04367197 	0.02387942 	0.03890233 	0.07976612 	0.06815682 	0.06807705 	0.07327736 	0.05555295 	0.01461001 	-0.00275187 	-0.00603270 	-0.01024630 	-0.00699540 	-0.01181208 	-0.01040028 	0.01651303 	0.00781542 	-0.03885150 	-0.03364961 	-0.03271067 	-0.03181902 	-0.01872990 	-0.01364185 	-0.03868227 	-0.05667003 	-0.06528121 	-0.07077562 	-0.08212595 	-0.09207632 	-0.06361371 	-0.04330689 	-0.02901439 	-0.02083520 	-0.00816607 	-0.00431713 	-0.01403430 	-0.02396354 	-0.03690838 	-0.04497354 	-0.05716176 	-0.02432800 	0.01529589 	0.01669353 	0.01440791 	0.00585022 	0.00275577 	-0.00069196 	-0.00705156 	-0.01090813 	-0.02741710 	-0.04890524 	-0.06007898 	-0.06647329 	-0.05544243 	-0.04066532 	-0.01063546 	0.00200312 	0.00267519 	0.00060023 	-0.00375705 	-0.02341338 	-0.04388610 	-0.05509802 	-0.07023317 	-0.08493617 	-0.07995120 	-0.03465390 	-0.00551456 	0.00993487 	0.00070811 	-0.00010332 	0.00312774 	-0.00591927 	-0.00217626 	0.00112231 	0.00053848 	-0.00634410 	-0.04499851 	-0.03753769 	-0.01126034 	0.01796524 	0.01755529 	-0.00704152 	0.01082122 	0.02817681 	0.04932777 	0.02187005 	-0.09479991 	-0.16022743 	-0.15171735 	-0.08590604 	-0.06009099 	0.01789489 	0.02994179 	-0.00434367 	-0.00534182 	0.02606554 	0.03123225 	-0.01226009 	-0.11977435 	-0.17317326 	-0.11274965 	-0.08594565 	-0.08634339 	-0.03725618 	0.00514561 	-0.01532487 	-0.00990118 	0.00217816 	0.05943466 	0.00463078 	-0.13201544 	-0.11289040 	-0.05410418 	-0.07705787 	-0.08144199 	-0.07675570 	-0.02682721 	-0.00137208 	0.00014683 	-0.00781722 	0.02396613 	0.06127632 	0.06060595 	0.00763519 	0.01823281 	-0.04819323 	-0.02933230 	-0.04369015 	-0.02966951 	0.00329354 	0.00550479 	0.00584842 	-0.02258966 	0.01836326 	0.10276534 	0.00819128 	0.03475271 	0.02553810 	0.01827440 	0.01236783 	-0.01152834 	-0.00336907 	-0.01615581 	-0.02248974 	0.00237548 	0.02046001 	0.07826990 	0.00916528 	0.04449209 	0.07346401 	0.05020500 	0.01581434 	-0.01451190 	-0.00479379 	-0.04628335 	-0.05557213 	-0.05266849 	-0.05247380 	-0.05484209 	-0.05615580 	-0.06511506 	-0.01336203 	-0.02299194 	-0.03199985 	-0.02673756 	-0.00569268 	-0.04153129 	-0.05283204 	-0.09056572 	-0.11207126 	-0.12568140 	-0.08561713 	-0.04545926 	-0.01043269 	-0.00837622 	-0.00865173 	-0.00991280 	-0.00127501 	-0.00459921 	-0.03103305 	-0.06520770 	-0.08163904 	-0.04706879 	-0.01482923 	0.02468541 	0.05319790 	0.03906311 	0.02048261 	0.00475122 	-0.00021670 	-0.00489026 	-0.01291426 	-0.00430378 	-0.00689153 	-0.01417779 	-0.02414790 	-0.04639217 	-0.03280042 	-0.00823101 	0.00951253 	0.00495610 	0.00039530 	0.00226792 	-0.01538690 	-0.04139921 	-0.06069012 	-0.05788084 	-0.05061340 	-0.04773865 	-0.02467226 	-0.00100970 	0.01022231 	0.00804782 	-0.00025121 	0.00537888 	-0.01073296 	-0.01660523 	-0.00248963 	0.03098265 	0.06347210 	0.04503313 	0.05215114 	0.03985626 	0.05541502 	0.02668618 	-0.00496534 	0.00187118 	0.00272265 	0.02851531 	0.05032580 	0.10143052 	0.11868908 	0.13530903 	0.11749200 	0.06877560 	0.06757247 	0.03103987 	-0.00748821 	-0.00150742 	-0.00602330 	0.03703346 	0.09074232 	0.11359626 	0.12291924 	0.14722960 	0.13545318 	0.05916458 	0.05029416 	0.01462079 	-0.00389344 	-0.01091269 	0.00294838 	0.05936759 	0.09904182 	0.11717890 	0.01132923 	0.12165605 	0.08727746 	0.02958981 	-0.00084695 	-0.01663487 	-0.00386466 	0.00615211 	0.02955078 	0.05337323 	0.09501014 	0.02333352 	-0.05696898 	0.10558993 	0.04039400 	0.00565822 	-0.03610575 	-0.02712744 	-0.00136978 	0.01577297 	0.03355199 	0.00929487 	0.01328561 	-0.12681922 	-0.06673190 	0.03023975 	-0.00544724 	-0.00054233 	-0.04086850 	-0.03161387 	0.00019295 	-0.00620274 	0.01497940 	-0.00493103 	-0.06400316 	-0.09238370 	-0.01671257 	-0.04415873 	-0.05041350 	-0.05380572 	-0.05006955 	-0.02813940 	-0.00413798 	-0.02569178 	-0.01198762 	-0.04105665 	-0.06548406 	-0.04311883 	0.00526487 	-0.06074954 	-0.06942268 	-0.06924292 	-0.05163782 	-0.02113610 	-0.00883879 	-0.02295125 	-0.02899730 	-0.03646058 	0.02580823 	0.03146766 	0.05354254 	-0.00915701 	0.01077957 	-0.03519699 	-0.01779567 	-0.00858725 	-0.00767151 	-0.01943904 	-0.02432871 	0.00552906 	0.02649168 	0.02013905 	0.05687673 	0.04088242 	0.02615834 	-0.01507794 	0.01032182 	-0.00172167 	-0.00293170 	-0.00869329 	-0.01072748 	0.00346607 	-0.00928181 	-0.03371999 	-0.01516181 	-0.03860852 	-0.00714550 	-0.00622927 	0.01076979 	0.00039042 	0.00039659 	-0.00023653 	-0.01182530 	-0.02494187 	-0.03611105 	-0.03999738 	-0.04007123 	-0.04317668 	-0.02445205 	-0.00422946 	0.00831902 	0.00136288 	-0.00130296 	0.00346365 	-0.00634013 	-0.00453699 	-0.00341314 	0.00431255 	0.00353788 	-0.01777741 	-0.01723085 	-0.00952748 	0.01520768 	0.01235218 	-0.00440021 	0.00767412 	0.02114274 	0.04455154 	0.06683757 	0.03634937 	-0.00689850 	-0.03089999 	-0.03526182 	-0.03730161 	0.01749119 	0.02223079 	-0.00372088 	0.00008121 	0.02696876 	0.07660747 	0.08724993 	0.05124772 	-0.03291176 	-0.01649987 	-0.03221832 	-0.05226325 	-0.01668740 	0.01114200 	-0.00582642 	-0.00983759 	0.00158195 	0.06400826 	0.07372492 	0.02463519 	-0.02281782 	0.02432433 	-0.01265059 	-0.03987323 	-0.04329469 	-0.01502735 	-0.00335157 	-0.00859398 	-0.00628392 	0.04616526 	0.07091600 	0.05109455 	-0.02860864 	0.06281359 	-0.02314567 	-0.02095154 	-0.03873483 	-0.03250087 	0.00122267 	0.00167447 	0.01115091 	0.01375405 	0.01789445 	0.02355861 	-0.04422696 	0.03310570 	0.01017016 	0.00978238 	-0.00318435 	-0.02189197 	-0.00114767 	-0.01259758 	-0.00372916 	0.00271032 	-0.02177436 	-0.01913416 	-0.03824881 	0.00087156 	0.02209128 	0.01985767 	-0.00748232 	-0.02499206 	-0.00473959 	-0.03863758 	-0.03584879 	-0.02326310 	-0.03254750 	-0.04462922 	-0.03782254 	-0.05190123 	-0.00435468 	-0.02685330 	-0.02366762 	-0.02073734 	-0.00478357 	-0.03300612 	-0.04554602 	-0.06678507 	-0.07070222 	-0.06771048 	-0.02005608 	-0.01873844 	0.00457035 	-0.01929862 	-0.01462076 	-0.01219479 	-0.00224484 	-0.01135847 	-0.02669869 	-0.03477724 	-0.01338437 	0.01355873 	0.03201167 	0.02252431 	0.03653108 	0.01374754 	0.01226481 	-0.00131178 	-0.00011227 	-0.00305773 	-0.00691763 	0.00441837 	0.00754916 	0.01740934 	0.01837026 	-0.00490543 	-0.01304005 	-0.00716954 	0.01094065 	0.00383747 	-0.00005506 	-0.00574245 	-0.02470609 	-0.03385019 	-0.03860031 	-0.03640952 	-0.04579994 	-0.03146007 	-0.00362399 	0.00073115 	0.00070942 	0.00057865 	0.00106703 	-0.00214768 	-0.01571965 	-0.01282640 	0.01372232 	0.02431525 	-0.01577306 	-0.03605326 	-0.00856753 	0.00054493 	0.01078123 	0.00211364 	-0.00586447 	0.01074666 	0.00597671 	0.01549868 	0.03111704 	-0.01652730 	-0.08141210 	-0.10810991 	-0.05942412 	-0.01855288 	0.00510085 	-0.00237733 	-0.01047404 	-0.00656899 	0.00357872 	-0.00632857 	0.00618921 	-0.09903150 	-0.12160756 	-0.07966723 	-0.08409051 	-0.07079810 	-0.01801203 	-0.00461567 	-0.00181262 	-0.01937382 	-0.01509735 	0.01662192 	-0.01884194 	-0.14770332 	-0.04334231 	0.00747210 	-0.04829960 	-0.08988939 	-0.05031812 	-0.01175905 	-0.00000045 	0.00620368 	0.00448383 	0.01989616 	0.03710078 	-0.03330991 	-0.00880480 	0.00979438 	-0.02895049 	-0.05379470 	-0.05409881 	-0.00915137 	0.01792963 	0.03795588 	0.04794781 	-0.02419743 	0.03307388 	0.06235952 	0.01750959 	-0.03550477 	-0.00707644 	0.00003159 	-0.00787414 	-0.00453114 	0.00290421 	0.02141491 	0.03166464 	-0.00982112 	-0.00303908 	0.04449521 	0.02965655 	-0.02395132 	0.00175146 	-0.00388682 	-0.00226207 	-0.01587785 	-0.01485372 	-0.02829362 	-0.02455660 	-0.00751190 	-0.03870920 	-0.03489074 	0.02437425 	-0.00529313 	-0.00381929 	-0.01007605 	-0.00999312 	-0.01946211 	-0.01904318 	-0.05106537 	-0.07256008 	-0.08994119 	-0.12012792 	-0.13111600 	-0.05087912 	-0.00137221 	0.02485033 	0.00359709 	-0.01220399 	-0.01499882 	-0.01051542 	-0.03693483 	-0.05034174 	-0.05566158 	-0.05789051 	-0.02910758 	0.00784770 	0.07012951 	0.07341602 	0.03649495 	0.01209489 	-0.00259500 	-0.00079908 	-0.01473283 	-0.01680057 	-0.01607473 	-0.02076819 	-0.01378901 	-0.02352964 	-0.02574543 	-0.00229729 	0.00671614 	0.01911650 	0.00267500 	0.00037917 	0.00030038 	-0.00149063 	-0.00485258 	-0.01039415 	-0.01988951 	-0.02197287 	-0.01632322 	-0.00740338 	-0.00322550 	-0.00066502 	-0.00013338 	-0.00034507 	0.00179400 	-0.00008250 	-0.01036295 	-0.02768397 	-0.05784210 	-0.08386604 	-0.06284711 	-0.03337919 	-0.01078343 	0.00154996 	0.00880039 	-0.00205098 	-0.01410379 	-0.03329905 	-0.06693310 	-0.11694908 	-0.20073576 	-0.25250900 	-0.15310489 	-0.05547754 	-0.00195995 	0.01557803 	0.01364562 	-0.01336573 	-0.02253237 	-0.05080555 	-0.08971921 	-0.12109195 	-0.18055210 	-0.19808646 	-0.13342240 	-0.07569011 	-0.00971059 	0.02081051 	0.01524512 	-0.00214953 	-0.01875057 	-0.04708239 	-0.07805657 	-0.07923331 	-0.10575874 	-0.13316669 	-0.10729394 	-0.06844786 	-0.02478512 	0.00830502 	0.00233352 	-0.01751460 	-0.02859782 	-0.01769586 	-0.01488632 	-0.00513667 	-0.04557660 	-0.10680234 	-0.06408753 	-0.02962098 	0.00843767 	0.01308103 	0.00062119 	0.01108364 	0.03536844 	0.03708517 	0.03636836 	0.05487231 	0.03423332 	0.00558790 	0.03788642 	0.09815335 	0.08473168 	0.02862944 	-0.01316813 	0.02926883 	0.05832393 	0.08209997 	0.06109123 	0.01316490 	-0.00199067 	0.02289490 	0.02902231 	0.06399561 	0.05050565 	-0.00113720 	-0.02257144 	0.00922615 	0.03086158 	0.07457972 	0.06599092 	0.00778934 	-0.02658180 	-0.01458635 	-0.02928258 	-0.01354811 	-0.00549288 	-0.01779023 	-0.01834260 	-0.00793960 	-0.00671772 	-0.01298907 	-0.05508600 	-0.11548346 	-0.13108702 	-0.15561625 	-0.13531108 	-0.08579491 	-0.06215471 	-0.04455344 	-0.02165686 	-0.01809165 	-0.04032505 	-0.06715096 	-0.07404373 	-0.06891746 	-0.04229783 	-0.00888575 	0.02908436 	0.03087214 	0.01064709 	-0.00053169 	-0.00241113 	-0.00392720 	-0.01448500 	-0.02455773 	-0.02327645 	-0.02757532 	-0.03035992 	-0.01794733 	-0.02657612 	-0.02343550 	0.00210642 	0.01208589 	0.00662904 	0.00047437 	-0.00905952 	-0.03854781 	-0.06859368 	-0.09092989 	-0.08815885 	-0.07696003 	-0.05375503 	-0.01369742 	0.00976069 	0.01298260 	0.00259461 	-0.00175245 	-0.00912971 	-0.03194792 	-0.05124237 	-0.04297300 	0.00301336 	0.05574941 	0.09396052 	0.08012047 	0.07114983 	0.06220903 	0.01428806 	-0.00401250 	-0.00260635 	-0.01449278 	-0.01209255 	0.01224938 	0.04732761 	0.14648971 	0.20204313 	0.15580855 	0.12641539 	0.09157699 	0.01886738 	-0.00152534 	-0.01624404 	-0.01211345 	0.00613574 	0.05106201 	0.05256446 	0.14721723 	0.23246966 	0.20359053 	0.13860351 	0.05595463 	-0.00406098 	0.00153684 	-0.01030301 	0.01548499 	0.03085664 	0.08460160 	-0.00912383 	-0.00133761 	0.15245180 	0.13413218 	0.06805310 	-0.00349420 	-0.01454003 	0.01430001 	0.04186858 	0.07810603 	0.07516889 	0.06006306 	-0.15934019 	-0.06115046 	0.07637420 	0.02184421 	0.00724116 	-0.02440348 	-0.01316785 	0.03189807 	0.05396494 	0.04682315 	0.01251970 	-0.07743917 	-0.23606756 	-0.06802224 	-0.01668685 	-0.00220482 	-0.01076050 	-0.02036801 	-0.00779341 	0.00625652 	-0.00032935 	0.00128879 	-0.05610989 	-0.13748638 	-0.11248980 	-0.03242183 	-0.05172427 	-0.02966037 	-0.04092983 	-0.03335712 	-0.01379122 	-0.02484666 	-0.03744787 	-0.02352272 	-0.06229333 	-0.09584222 	-0.03467999 	-0.06052477 	-0.09039061 	-0.08332282 	-0.06256100 	-0.02939774 	-0.00667586 	-0.02734007 	-0.05225961 	-0.04849343 	-0.00816183 	-0.01578150 	0.00519331 	-0.02936966 	-0.03213989 	-0.03156367 	-0.01867707 	-0.00657330 	-0.00160268 	-0.01517595 	-0.03389738 	-0.02439716 	0.01859065 	-0.00050588 	0.00486275 	0.02397184 	0.02667877 	0.00209165 	0.01294222 	0.00204351 	-0.00006578 	-0.00424918 	-0.01359759 	0.00057051 	-0.00147739 	-0.05357929 	-0.06594776 	-0.07723682 	-0.04300738 	-0.02564691 	0.00488707 	0.00152055 	0.00046797 	
0.00009618 	0.00150763 	0.00525643 	0.00518045 	-0.00024425 	-0.00748650 	-0.01458559 	0.00051505 	0.01775282 	0.00839657 	0.00448425 	0.00116950 	-0.00230346 	-0.01594688 	-0.03508923 	-0.04079197 	-0.04713208 	-0.02128862 	0.04020194 	0.09590134 	0.10470038 	0.05707082 	0.04469733 	0.02456830 	-0.01057842 	-0.03504013 	-0.06089536 	-0.05503538 	-0.06422181 	-0.05369912 	-0.03732956 	0.07257234 	0.15648948 	0.13592310 	0.08891662 	0.03561001 	-0.02257080 	-0.05157685 	-0.08783120 	-0.12761784 	-0.17527768 	-0.20035602 	-0.12653643 	-0.01546322 	0.00834865 	0.05405644 	0.08340073 	0.08903857 	-0.02072367 	-0.04043862 	-0.08270745 	-0.13098092 	-0.13583410 	-0.09499112 	-0.07601548 	-0.11498430 	-0.15387143 	-0.09266818 	0.00330084 	0.06025327 	-0.00927054 	-0.00623353 	-0.02818023 	-0.05540152 	-0.03475641 	0.00308956 	-0.06384721 	-0.15473865 	-0.16439551 	-0.10728736 	-0.05265201 	-0.00316661 	-0.00339073 	-0.00789648 	-0.02539397 	-0.00305826 	-0.00877168 	-0.03590509 	-0.06535862 	-0.06616649 	-0.06946765 	-0.08372550 	-0.06334424 	-0.00223059 	-0.01003193 	0.00044091 	0.00444047 	0.00557629 	-0.03435132 	-0.05105536 	-0.02271426 	-0.05687656 	-0.06927685 	-0.06702743 	-0.04762098 	-0.02562413 	-0.00466487 	0.02345682 	0.02155285 	-0.00325457 	0.01127527 	0.02491298 	-0.02286365 	-0.06465786 	-0.03898358 	-0.04269997 	-0.01361199 	-0.00614277 	-0.01825908 	-0.00935048 	0.01878317 	0.06268746 	0.07440746 	0.04194407 	-0.01496912 	0.01598142 	-0.00410958 	0.01293934 	0.02656640 	-0.01399564 	-0.01122591 	-0.01364735 	0.00712619 	0.05169427 	0.05698353 	0.06512847 	0.03627636 	0.05615910 	0.04845008 	0.03756129 	0.01243126 	-0.00027077 	-0.00437321 	-0.01430645 	-0.02300975 	-0.02300499 	0.00240160 	0.02875425 	0.06149631 	0.05252590 	0.03320366 	0.01910569 	0.01196329 	0.00114717 	0.00025646 	0.00040660 	0.00137544 	-0.00094557 	-0.00715746 	-0.01617105 	-0.02148544 	-0.01745817 	-0.00605927 	-0.00125163 	0.00131679 	0.00193492 	-0.00558695 	-0.01889683 	-0.03627682 	-0.04285847 	-0.04562771 	-0.03097827 	0.01721869 	0.04033853 	0.01149370 	0.00958147 	0.02689408 	0.01264689 	-0.01533218 	-0.03295954 	-0.03660006 	-0.01654606 	0.00476710 	-0.01330967 	0.03756075 	0.09176470 	0.09383462 	0.07542178 	0.07250880 	0.05631490 	-0.02130358 	-0.05021448 	-0.04968892 	-0.02724762 	-0.01656662 	-0.02131294 	0.02565137 	0.10384787 	0.13608049 	0.11918754 	0.11828301 	0.10646010 	-0.01604323 	-0.03435403 	-0.02134157 	-0.01919093 	0.01314854 	0.04968473 	0.10743837 	0.14452118 	0.08795790 	0.03281775 	0.05668691 	0.07555594 	-0.01238360 	-0.00776912 	0.01075713 	-0.00086870 	0.04429557 	0.07698803 	0.06814288 	0.04613187 	0.02984510 	-0.01209138 	-0.04905557 	-0.01602019 	-0.01294897 	-0.03042874 	0.00966771 	0.03629295 	0.04125097 	0.00838667 	0.01620469 	0.00807952 	-0.00991071 	-0.02015904 	-0.04541491 	-0.01631766 	0.00286906 	0.00674299 	0.01943172 	0.03811933 	0.04357287 	0.01525586 	-0.00204691 	-0.01479844 	-0.03114231 	-0.03168926 	-0.03696463 	-0.01983578 	-0.00930954 	0.02229853 	0.06690926 	0.06473973 	0.04551048 	0.01325919 	-0.00661540 	-0.01516322 	-0.01409061 	-0.01639756 	-0.01020399 	-0.00435363 	-0.02074708 	-0.00708772 	0.04098528 	0.06608315 	0.05466240 	0.01502624 	-0.03484102 	-0.02904309 	-0.01122473 	0.00206295 	0.01034037 	-0.00070533 	-0.01149180 	-0.01837738 	0.00698473 	0.03086442 	0.04132273 	0.01919284 	-0.01286362 	-0.01663258 	0.00071307 	0.00143350 	-0.00073082 	-0.00184500 	-0.00520189 	-0.01634011 	-0.01813997 	-0.00342342 	0.01640949 	0.02848521 	0.02231776 	0.00429881 	0.00176296 	-0.00235470 	0.00152184 	0.00109756 	-0.00115049 	-0.00260263 	-0.00118473 	-0.00431028 	-0.01408240 	-0.02969335 	-0.03335088 	-0.03159388 	-0.01634810 	-0.00573331 	-0.00180464 	0.00071737 	-0.00703096 	-0.01040932 	-0.01754060 	-0.03167683 	-0.03968521 	-0.05954942 	-0.06766734 	-0.05191163 	-0.09704169 	-0.08003154 	-0.00558580 	0.00199484 	-0.01453715 	-0.02874781 	-0.02296020 	-0.02569527 	-0.01842480 	-0.05005370 	-0.05430210 	-0.06885412 	-0.11003874 	-0.11325166 	-0.04072123 	0.02360792 	-0.01977674 	-0.05586632 	-0.07254804 	-0.03413240 	-0.01824956 	0.00417773 	-0.00589968 	-0.00543946 	-0.02175597 	-0.03448416 	-0.00304550 	0.07116279 	-0.03015781 	-0.04485793 	-0.04172419 	0.00890337 	-0.00077354 	0.00576024 	0.07207496 	0.16399309 	0.13144819 	0.00683571 	-0.01033835 	0.05594042 	-0.01833919 	-0.02450434 	0.00880668 	-0.00844147 	0.01804412 	0.07255266 	0.08043630 	0.11124934 	0.09585043 	0.05941491 	-0.01181855 	-0.02621347 	-0.00261016 	0.00404647 	0.00126318 	-0.01420199 	0.01203487 	0.03387856 	0.06217184 	0.05834910 	0.01942825 	0.01747078 	0.01325876 	-0.01191912 	-0.01009461 	0.05938677 	0.10231803 	0.09236915 	0.06654935 	0.06243902 	0.00339759 	-0.00061195 	-0.02221678 	-0.02756495 	-0.01966623 	-0.01121738 	-0.02600563 	0.00150472 	0.08319302 	0.11374162 	0.07937578 	0.03808776 	-0.00870766 	-0.01326797 	-0.02939127 	-0.01991647 	-0.00138453 	0.00149813 	-0.02413451 	-0.01400058 	0.01728642 	0.04199895 	0.03755035 	0.00116260 	-0.03212470 	-0.01263796 	-0.01123815 	-0.01766462 	-0.00808734 	0.00044414 	-0.01105246 	-0.02564758 	0.00753611 	0.04573327 	0.04027589 	-0.00130707 	-0.04293776 	-0.04391043 	-0.04078277 	-0.01924452 	-0.00641992 	-0.00071336 	-0.00189159 	-0.01013360 	-0.01316574 	0.00802522 	0.02275210 	0.01005431 	-0.01153239 	-0.02108094 	-0.02859262 	-0.01715212 	-0.00241135 	0.00295944 	0.00031962 	-0.00029967 	-0.00158922 	-0.00860438 	-0.01543083 	-0.02905769 	-0.01094734 	0.02038257 	0.02272745 	0.00218886 	0.00035890 	-0.00010326 	-0.00146926 	-0.01296991 	-0.01648492 	-0.00796428 	0.00477179 	-0.01446839 	0.01230179 	0.04205745 	0.05679469 	0.02456370 	0.03341755 	0.01558017 	-0.00526198 	-0.02623444 	-0.00784112 	0.03132070 	0.04449527 	0.00945280 	-0.06128643 	-0.05651187 	-0.04780626 	-0.03375913 	0.01741855 	0.03869526 	-0.00855717 	-0.01626712 	0.01368660 	0.04049610 	0.03977307 	-0.01795838 	-0.17145985 	-0.20038125 	-0.24949728 	-0.17959155 	-0.05263657 	0.06165639 	-0.00918651 	-0.00397869 	0.00053826 	0.02612123 	0.06258512 	0.04551187 	-0.10945705 	-0.23585212 	-0.32329184 	-0.27259842 	-0.16047689 	-0.03094236 	-0.00930715 	-0.01471053 	-0.03181416 	-0.02734041 	0.04979217 	0.01824431 	-0.06744338 	-0.17150910 	-0.16998474 	-0.16465591 	-0.13440175 	-0.06128811 	-0.01378214 	-0.04496242 	-0.08041552 	-0.05188752 	0.00711346 	-0.01686024 	-0.05440555 	-0.08465222 	-0.06782343 	-0.04320680 	-0.06145177 	-0.04424929 	-0.01278927 	-0.04145135 	-0.09798779 	-0.10782333 	-0.11310051 	-0.06809928 	-0.04933959 	-0.02279349 	-0.00708551 	-0.00444267 	-0.00838928 	-0.02273962 	-0.01198918 	-0.02316515 	-0.05929823 	-0.09874268 	-0.08974785 	-0.03976504 	-0.08024844 	-0.03158407 	-0.01770733 	0.01477961 	0.01989430 	0.00037341 	-0.01153527 	-0.02074777 	-0.02987972 	-0.02811379 	-0.02605900 	-0.05018339 	-0.09936033 	-0.01222829 	-0.00581016 	0.03757922 	0.03070246 	0.00398763 	-0.00676369 	-0.01297080 	-0.02655650 	-0.00152900 	-0.03334469 	-0.04876664 	-0.03771849 	0.01884629 	-0.00187591 	0.02377976 	0.00793298 	0.00678397 	-0.00471162 	-0.01284487 	-0.01677466 	-0.01683168 	-0.04882330 	-0.06418835 	-0.03717524 	-0.02565512 	-0.01678594 	-0.00612397 	0.00174780 	0.00302989 	0.00046755 	-0.00138179 	-0.00031618 	0.00075480 	-0.00192229 	-0.01153321 	-0.01308879 	-0.00622163 	0.00069802 	0.00255075 	0.00023857 	-0.00000871 	-0.00125363 	-0.00819628 	-0.00646384 	-0.01289471 	-0.00853835 	-0.02858033 	-0.02910310 	-0.00067714 	-0.01986792 	-0.02406107 	-0.00172461 	0.00102084 	-0.00469173 	-0.01740012 	-0.00308698 	0.00297171 	0.01431052 	-0.01206996 	-0.03962678 	-0.03649879 	-0.07315271 	-0.09869510 	-0.03903010 	0.01199717 	-0.00902011 	-0.01963664 	-0.00188581 	0.05102965 	0.06484730 	0.03999650 	-0.07056128 	-0.09748916 	-0.11945470 	-0.12401223 	-0.04804101 	0.03758674 	-0.01018984 	-0.00470236 	0.03165819 	0.09118666 	0.09573349 	0.03930668 	-0.05011835 	-0.06840118 	-0.10813016 	-0.13841335 	-0.08549313 	0.01298443 	-0.00593266 	-0.00139719 	0.02730349 	0.03531459 	0.06239821 	0.04629202 	-0.01624127 	-0.03234012 	-0.05529789 	-0.07740051 	-0.07757556 	-0.03990190 	-0.00521738 	-0.00699338 	-0.01487304 	-0.01346451 	0.03783006 	0.05977669 	0.00879333 	-0.02528488 	-0.01396533 	-0.01313412 	-0.02734315 	-0.03340282 	-0.00964673 	-0.00362222 	-0.01506806 	-0.01834995 	0.00002293 	0.02925365 	-0.03248292 	-0.03591014 	-0.02384169 	-0.02421121 	-0.02062105 	-0.01225731 	-0.01211918 	-0.01951974 	-0.00411325 	-0.02564164 	-0.03760213 	-0.01957319 	-0.03951796 	-0.02646233 	-0.03033766 	-0.01853549 	-0.00215275 	0.00553682 	-0.01156868 	-0.02502825 	-0.02365286 	-0.02813436 	-0.04085835 	-0.02881419 	-0.05744494 	-0.02267217 	-0.02862878 	-0.01254772 	0.00533396 	0.00900622 	-0.00471304 	-0.02163398 	-0.02595744 	-0.01726433 	-0.02286956 	-0.02871197 	-0.05491655 	-0.02657687 	-0.02894621 	-0.00966434 	0.00393070 	0.00479145 	-0.00043407 	-0.00440679 	-0.01234456 	-0.01076295 	-0.01978287 	-0.03594510 	-0.03034300 	-0.02345844 	-0.02392226 	-0.01202071 	-0.00004602 	0.00319477 	-0.00066310 	-0.00123734 	0.00110095 	0.00072032 	-0.01109604 	-0.02052361 	-0.01882628 	-0.00542612 	-0.00336797 	-0.00182769 	-0.00004354 	0.00105994 	-0.00533211 	-0.01061059 	-0.00716495 	-0.01352378 	-0.05023263 	-0.08090503 	-0.06023071 	-0.04153768 	-0.05772337 	-0.03782783 	-0.00319660 	0.00850212 	-0.01715111 	-0.01976764 	-0.00099223 	-0.02620749 	-0.02036969 	-0.06962536 	-0.06832450 	-0.04669805 	-0.10122647 	-0.09986190 	-0.00698622 	0.02509251 	-0.02004862 	-0.04045895 	-0.01119362 	0.02071592 	0.05341191 	-0.01689664 	-0.05017089 	0.00823862 	0.00926740 	-0.01257601 	0.01963906 	0.05359133 	-0.01917537 	-0.01812280 	-0.00008723 	0.05895129 	0.04454874 	0.00520330 	0.04266771 	0.08067562 	0.03684098 	0.01689695 	0.02699075 	0.06784506 	-0.02371116 	-0.00892613 	0.03206900 	0.03824751 	-0.00014079 	0.01071210 	0.03861618 	0.06719876 	0.08935878 	0.02401795 	-0.03862938 	0.00122104 	-0.02129581 	-0.05229517 	-0.00086964 	0.06874854 	0.10135869 	0.03048661 	-0.01905246 	-0.01559892 	0.01738844 	0.02671756 	-0.00042825 	-0.01872612 	-0.01020191 	-0.03067228 	-0.04407981 	0.02670657 	0.07043312 	0.00791506 	-0.04304606 	-0.01855511 	-0.01519106 	-0.01547584 	0.00200849 	-0.00733120 	-0.02911495 	-0.00367037 	0.01248148 	-0.01157727 	-0.05426681 	-0.06328347 	-0.05360917 	-0.04008560 	-0.01115016 	0.00673170 	-0.00266977 	-0.00182773 	-0.04031598 	-0.02627993 	0.00902103 	-0.00275703 	-0.01770671 	-0.05256966 	-0.08095773 	-0.05676807 	-0.05315641 	-0.01499396 	-0.00036904 	0.00280389 	-0.02507179 	-0.03312001 	-0.01304789 	0.02845964 	0.02489536 	0.00174183 	-0.05192941 	-0.08507767 	-0.07098439 	-0.02622677 	-0.00380086 	0.00131018 	-0.00765961 	-0.02391420 	-0.02293940 	0.01110134 	0.00152352 	-0.00701470 	0.00072258 	-0.02938824 	-0.03358671 	-0.01772187 	-0.00246717 	0.00276811 	0.00010643 	0.00131010 	0.00351394 	0.00312967 	-0.00076994 	-0.00622278 	-0.01200664 	-0.00849731 	-0.00151780 	0.00008060 	-0.00074298 	0.00067156 	-0.00225626 	-0.01089761 	-0.02995895 	-0.05294617 	-0.06243253 	-0.02240811 	0.04970438 	0.09214218 	0.05410386 	0.03564751 	0.02695978 	0.01067658 	-0.01179692 	-0.04515680 	-0.09626498 	-0.14904284 	-0.12472343 	0.00152730 	0.14682040 	0.22717677 	0.22383368 	0.17179956 	0.10728627 	0.04526988 	-0.02677890 	-0.08297639 	-0.14468071 	-0.14662611 	-0.10727365 	-0.01578430 	0.07010061 	0.18525304 	0.22396031 	0.17795028 	0.13127451 	0.06964947 	-0.02179493 	-0.05343232 	-0.07617527 	-0.07500489 	-0.01756908 	0.01577430 	0.08322764 	0.11511829 	0.09313878 	0.09662542 	0.11613556 	0.08898309 	-0.00718099 	0.01256191 	0.05012172 	0.06233333 	0.08206060 	0.08280326 	0.05048850 	0.03020658 	0.00869332 	-0.03383206 	-0.02660656 	0.00672962 	0.00168881 	0.04692006 	0.09838431 	0.14649476 	0.12048966 	0.04849915 	-0.01123320 	-0.03947920 	-0.03850260 	-0.05024430 	-0.06055767 	-0.01814970 	-0.01108000 	0.00545421 	0.06512451 	0.15606911 	0.15368836 	0.05801257 	-0.02696670 	-0.03210467 	-0.07474805 	-0.06181267 	-0.04186728 	-0.01288693 	-0.00866524 	0.02441085 	0.07419494 	0.09615669 	0.08778008 	0.07110329 	0.01522478 	-0.01697839 	-0.03755143 	-0.04305978 	-0.02333575 	-0.01321575 	-0.02084973 	-0.01757856 	0.02063262 	0.04927384 	0.05111586 	0.01543815 	-0.02605149 	-0.07714161 	-0.04934646 	-0.01975475 	-0.00828940 	0.00006935 	-0.02459688 	-0.04343338 	-0.02095814 	0.00458953 	0.03983463 	0.02786304 	-0.01683337 	-0.05742219 	-0.02729452 	0.00518899 	0.00148135 	-0.00103140 	-0.01359480 	-0.02869881 	-0.02570236 	-0.01679547 	0.00213345 	0.02021911 	0.04174186 	0.02320823 	0.00588683 	0.00308071 	0.00236323 	0.00286645 	-0.00113806 	-0.00227513 	0.00174718 	0.00063301 	-0.02202898 	-0.04742540 	-0.02768761 	-0.01207034 	-0.00084632 	0.00380684 	-0.00098066 	0.00013028 	-0.01004503 	-0.00880686 	0.00352399 	-0.00274526 	-0.02714952 	-0.04209389 	-0.03071143 	-0.00846177 	0.01347611 	0.03033833 	0.01517324 	0.00874153 	-0.02194336 	-0.02050479 	0.01664048 	0.01407388 	0.01480022 	0.00964635 	-0.00382552 	0.00669465 	0.00737773 	0.02826560 	0.01947165 	0.03794543 	-0.02177210 	-0.02250313 	0.00308091 	0.00813588 	0.02240771 	0.01066473 	-0.04853695 	-0.10025075 	-0.07408487 	-0.01953482 	0.04720656 	0.07879509 	-0.01925568 	-0.01261577 	-0.02235325 	-0.03938039 	-0.04323466 	-0.03785041 	-0.10300468 	-0.21889812 	-0.22893618 	-0.16124725 	-0.07246063 	-0.00217361 	-0.02392635 	-0.04842418 	-0.08332530 	-0.10535022 	-0.05020706 	-0.01601881 	-0.10156328 	-0.18023556 	-0.14243853 	-0.14173034 	-0.11241635 	-0.02411814 	-0.03429584 	-0.09225839 	-0.12352150 	-0.09096086 	-0.05564843 	-0.03118358 	-0.03048618 	-0.03924078 	-0.04334319 	-0.10356796 	-0.09748010 	-0.02001693 	-0.03383172 	-0.06217505 	-0.09583449 	-0.12959847 	-0.14026529 	-0.05171818 	0.00122181 	0.02619745 	-0.02543845 	-0.03652559 	-0.03325956 	-0.01067090 	-0.03667263 	-0.02713552 	-0.03997710 	-0.09895477 	-0.08805706 	-0.07335385 	-0.00466109 	0.02327555 	-0.00975404 	0.00552953 	0.01945942 	0.00089280 	-0.04356899 	-0.03156406 	0.01438133 	0.02306120 	0.02099988 	-0.00718791 	0.00587323 	-0.01250363 	0.01174214 	0.03664954 	0.02423195 	0.00148559 	-0.02544075 	-0.02511708 	0.01437960 	0.04197476 	0.01579022 	0.01370841 	0.01804671 	-0.02384811 	0.01389015 	0.01495076 	0.01215194 	0.00071933 	-0.00965647 	-0.01763171 	-0.02459037 	-0.03647093 	-0.05794450 	-0.03085347 	0.00251377 	-0.02017475 	-0.01242647 	0.00417849 	0.00705828 	0.00014695 	
